<?xml version="1.0"?>
<opencv_storage>
<stage10>
  <maxWeakCount>6</maxWeakCount>
  <stageThreshold>-1.9923410415649414e+00</stageThreshold>
  <weakClassifiers>
    <_>
      <internalNodes>
        0 -1 64408 -5.8446578681468964e-02</internalNodes>
      <leafValues>
        1. -9.3423599004745483e-01</leafValues></_>
    <_>
      <internalNodes>
        0 -1 151509 -8.0581801012158394e-03</internalNodes>
      <leafValues>
        6.9504171609878540e-02 -7.2584629058837891e-01</leafValues></_>
    <_>
      <internalNodes>
        0 -1 158296 2.3804372176527977e-03</internalNodes>
      <leafValues>
        -4.1010832786560059e-01 3.7972787022590637e-01</leafValues></_>
    <_>
      <internalNodes>
        0 -1 56827 3.9471671916544437e-03</internalNodes>
      <leafValues>
        -3.4898933768272400e-01 4.6006330847740173e-01</leafValues></_>
    <_>
      <internalNodes>
        0 -1 66466 2.2292707115411758e-02</internalNodes>
      <leafValues>
        -4.5745524764060974e-01 4.2525395750999451e-01</leafValues></_>
    <_>
      <internalNodes>
        0 -1 38939 2.9555941000580788e-04</internalNodes>
      <leafValues>
        2.1884033083915710e-01 -7.1459478139877319e-01</leafValues></_></weakClassifiers></stage10>
</opencv_storage>
