<?xml version="1.0"?>
<opencv_storage>
<stage4>
  <maxWeakCount>5</maxWeakCount>
  <stageThreshold>-2.3463692665100098e+00</stageThreshold>
  <weakClassifiers>
    <_>
      <internalNodes>
        0 -1 33953 -3.0124746263027191e-02</internalNodes>
      <leafValues>
        1. -9.3423599004745483e-01</leafValues></_>
    <_>
      <internalNodes>
        0 -1 104566 1.2181763537228107e-02</internalNodes>
      <leafValues>
        -7.1845364570617676e-01 1.1904846876859665e-01</leafValues></_>
    <_>
      <internalNodes>
        0 -1 25017 -7.6358171645551920e-04</internalNodes>
      <leafValues>
        2.0099520683288574e-01 -6.6755414009094238e-01</leafValues></_>
    <_>
      <internalNodes>
        0 -1 129170 2.1392207127064466e-03</internalNodes>
      <leafValues>
        -4.3361052870750427e-01 3.6924657225608826e-01</leafValues></_>
    <_>
      <internalNodes>
        0 -1 96137 1.2947854120284319e-03</internalNodes>
      <leafValues>
        -4.6106433868408203e-01 3.6520940065383911e-01</leafValues></_></weakClassifiers></stage4>
</opencv_storage>
