<?xml version="1.0"?>
<opencv_storage>
<stage11>
  <maxWeakCount>5</maxWeakCount>
  <stageThreshold>-2.1953959465026855e+00</stageThreshold>
  <weakClassifiers>
    <_>
      <internalNodes>
        0 -1 132753 -7.9899560660123825e-03</internalNodes>
      <leafValues>
        6.0000002384185791e-01 -9.3604654073715210e-01</leafValues></_>
    <_>
      <internalNodes>
        0 -1 63005 -6.0295090079307556e-02</internalNodes>
      <leafValues>
        5.0424069166183472e-01 -6.9973725080490112e-01</leafValues></_>
    <_>
      <internalNodes>
        0 -1 13029 1.1054414790123701e-03</internalNodes>
      <leafValues>
        7.7813148498535156e-02 -8.0605936050415039e-01</leafValues></_>
    <_>
      <internalNodes>
        0 -1 13 -2.6687290519475937e-03</internalNodes>
      <leafValues>
        -6.6729521751403809e-01 1.6856779158115387e-01</leafValues></_>
    <_>
      <internalNodes>
        0 -1 13576 1.3206349685788155e-02</internalNodes>
      <leafValues>
        -2.9023548960685730e-01 5.2041691541671753e-01</leafValues></_></weakClassifiers></stage11>
</opencv_storage>
