<?xml version="1.0"?>
<opencv_storage>
<stage2>
  <maxWeakCount>5</maxWeakCount>
  <stageThreshold>-1.4754172563552856e+00</stageThreshold>
  <weakClassifiers>
    <_>
      <internalNodes>
        0 -1 56696 -1.1039150878787041e-02</internalNodes>
      <leafValues>
        6.0000002384185791e-01 -9.3604654073715210e-01</leafValues></_>
    <_>
      <internalNodes>
        0 -1 4303 -3.1439490616321564e-02</internalNodes>
      <leafValues>
        1.3106989860534668e-01 -7.6883453130722046e-01</leafValues></_>
    <_>
      <internalNodes>
        0 -1 155650 6.9293129490688443e-04</internalNodes>
      <leafValues>
        -7.2246903181076050e-01 1.7975968122482300e-01</leafValues></_>
    <_>
      <internalNodes>
        0 -1 126431 -3.8630352355539799e-03</internalNodes>
      <leafValues>
        6.1903065443038940e-01 -3.7563872337341309e-01</leafValues></_>
    <_>
      <internalNodes>
        0 -1 159294 -1.9480914343148470e-03</internalNodes>
      <leafValues>
        4.2766705155372620e-01 -4.4169744849205017e-01</leafValues></_></weakClassifiers></stage2>
</opencv_storage>
