<?xml version="1.0"?>
<opencv_storage>
<cascade>
  <stageType>BOOST</stageType>
  <featureType>HAAR</featureType>
  <height>24</height>
  <width>24</width>
  <stageParams>
    <boostType>GAB</boostType>
    <minHitRate>9.9500000476837158e-01</minHitRate>
    <maxFalseAlarm>5.0000000000000000e-01</maxFalseAlarm>
    <weightTrimRate>9.4999999999999996e-01</weightTrimRate>
    <maxDepth>1</maxDepth>
    <maxWeakCount>100</maxWeakCount></stageParams>
  <featureParams>
    <maxCatCount>0</maxCatCount>
    <featSize>1</featSize>
    <mode>BASIC</mode></featureParams>
  <stageNum>20</stageNum>
  <stages>
    <!-- stage 0 -->
    <_>
      <maxWeakCount>7</maxWeakCount>
      <stageThreshold>-1.7393108606338501e+00</stageThreshold>
      <weakClassifiers>
        <_>
          <internalNodes>
            0 -1 129 -3.9950791746377945e-02</internalNodes>
          <leafValues>
            1. -8.4672206640243530e-01</leafValues></_>
        <_>
          <internalNodes>
            0 -1 149 1.1837307829409838e-03</internalNodes>
          <leafValues>
            -6.0624849796295166e-01 2.1835720539093018e-01</leafValues></_>
        <_>
          <internalNodes>
            0 -1 1 -1.5975169837474823e-02</internalNodes>
          <leafValues>
            3.3392703533172607e-01 -4.2778998613357544e-01</leafValues></_>
        <_>
          <internalNodes>
            0 -1 116 4.2474064975976944e-03</internalNodes>
          <leafValues>
            -3.3659818768501282e-01 4.2426624894142151e-01</leafValues></_>
        <_>
          <internalNodes>
            0 -1 38 -3.0118753202259541e-03</internalNodes>
          <leafValues>
            3.8089159131050110e-01 -3.7194555997848511e-01</leafValues></_>
        <_>
          <internalNodes>
            0 -1 171 2.8399713337421417e-03</internalNodes>
          <leafValues>
            -3.6117449402809143e-01 4.3201729655265808e-01</leafValues></_>
        <_>
          <internalNodes>
            0 -1 109 2.5535877794027328e-03</internalNodes>
          <leafValues>
            -3.3209344744682312e-01 4.5030343532562256e-01</leafValues></_></weakClassifiers></_>
    <!-- stage 1 -->
    <_>
      <maxWeakCount>10</maxWeakCount>
      <stageThreshold>-1.8087381124496460e+00</stageThreshold>
      <weakClassifiers>
        <_>
          <internalNodes>
            0 -1 62 -3.9767466485500336e-02</internalNodes>
          <leafValues>
            3.0434781312942505e-01 -8.5074627399444580e-01</leafValues></_>
        <_>
          <internalNodes>
            0 -1 92 -6.0286996886134148e-03</internalNodes>
          <leafValues>
            1.4692704379558563e-01 -5.2067220211029053e-01</leafValues></_>
        <_>
          <internalNodes>
            0 -1 2 -3.3114627003669739e-02</internalNodes>
          <leafValues>
            3.4898158907890320e-01 -2.6518136262893677e-01</leafValues></_>
        <_>
          <internalNodes>
            0 -1 22 -2.0974017679691315e-03</internalNodes>
          <leafValues>
            2.6746481657028198e-01 -3.6346244812011719e-01</leafValues></_>
        <_>
          <internalNodes>
            0 -1 35 1.3732148800045252e-03</internalNodes>
          <leafValues>
            1.0169850289821625e-01 -8.9617264270782471e-01</leafValues></_>
        <_>
          <internalNodes>
            0 -1 47 2.3167404287960380e-04</internalNodes>
          <leafValues>
            -3.5792213678359985e-01 2.6403543353080750e-01</leafValues></_>
        <_>
          <internalNodes>
            0 -1 90 -1.0457668453454971e-02</internalNodes>
          <leafValues>
            3.6334922909736633e-01 -2.6941806077957153e-01</leafValues></_>
        <_>
          <internalNodes>
            0 -1 82 1.2293509207665920e-03</internalNodes>
          <leafValues>
            -1.8113793432712555e-01 4.8880085349082947e-01</leafValues></_>
        <_>
          <internalNodes>
            0 -1 141 2.2808881476521492e-03</internalNodes>
          <leafValues>
            1.3752906024456024e-01 -7.8985166549682617e-01</leafValues></_>
        <_>
          <internalNodes>
            0 -1 3 -1.5128567814826965e-02</internalNodes>
          <leafValues>
            -6.0996258258819580e-01 1.2964749336242676e-01</leafValues></_></weakClassifiers></_>
    <!-- stage 2 -->
    <_>
      <maxWeakCount>8</maxWeakCount>
      <stageThreshold>-1.7439460754394531e+00</stageThreshold>
      <weakClassifiers>
        <_>
          <internalNodes>
            0 -1 106 -1.6519725322723389e-02</internalNodes>
          <leafValues>
            6.9230771064758301e-01 -8.4473198652267456e-01</leafValues></_>
        <_>
          <internalNodes>
            0 -1 5 -1.6451258957386017e-01</internalNodes>
          <leafValues>
            3.4007793664932251e-01 -5.2075594663619995e-01</leafValues></_>
        <_>
          <internalNodes>
            0 -1 44 7.9875245690345764e-02</internalNodes>
          <leafValues>
            -2.8885218501091003e-01 4.8317471146583557e-01</leafValues></_>
        <_>
          <internalNodes>
            0 -1 204 9.6519110957160592e-04</internalNodes>
          <leafValues>
            2.2404880821704865e-01 -5.4664260149002075e-01</leafValues></_>
        <_>
          <internalNodes>
            0 -1 77 7.2359055280685425e-02</internalNodes>
          <leafValues>
            1.1936762928962708e-01 -8.8892811536788940e-01</leafValues></_>
        <_>
          <internalNodes>
            0 -1 9 -6.0517564415931702e-03</internalNodes>
          <leafValues>
            -5.4165101051330566e-01 2.1421821415424347e-01</leafValues></_>
        <_>
          <internalNodes>
            0 -1 140 -4.4550409074872732e-04</internalNodes>
          <leafValues>
            -5.2118206024169922e-01 1.9003009796142578e-01</leafValues></_>
        <_>
          <internalNodes>
            0 -1 25 -4.8650731332600117e-04</internalNodes>
          <leafValues>
            -6.8980884552001953e-01 1.6211715340614319e-01</leafValues></_></weakClassifiers></_>
    <!-- stage 3 -->
    <_>
      <maxWeakCount>9</maxWeakCount>
      <stageThreshold>-1.7239010334014893e+00</stageThreshold>
      <weakClassifiers>
        <_>
          <internalNodes>
            0 -1 111 -2.8221078217029572e-02</internalNodes>
          <leafValues>
            6.6666668653488159e-01 -8.4302860498428345e-01</leafValues></_>
        <_>
          <internalNodes>
            0 -1 94 2.4065437901299447e-04</internalNodes>
          <leafValues>
            -6.7178416252136230e-01 -1.5212762355804443e-01</leafValues></_>
        <_>
          <internalNodes>
            0 -1 12 -1.4924004208296537e-03</internalNodes>
          <leafValues>
            -4.6201527118682861e-01 1.6495214402675629e-01</leafValues></_>
        <_>
          <internalNodes>
            0 -1 152 9.5232028979808092e-04</internalNodes>
          <leafValues>
            -3.7593865394592285e-01 2.4460388720035553e-01</leafValues></_>
        <_>
          <internalNodes>
            0 -1 169 2.5051995180547237e-04</internalNodes>
          <leafValues>
            -3.4521052241325378e-01 2.6357749104499817e-01</leafValues></_>
        <_>
          <internalNodes>
            0 -1 133 3.7305644946172833e-04</internalNodes>
          <leafValues>
            -2.9426315426826477e-01 3.1518152356147766e-01</leafValues></_>
        <_>
          <internalNodes>
            0 -1 139 1.9983826205134392e-03</internalNodes>
          <leafValues>
            -2.4925222992897034e-01 4.1314303874969482e-01</leafValues></_>
        <_>
          <internalNodes>
            0 -1 155 -4.5261024497449398e-03</internalNodes>
          <leafValues>
            -6.8314373493194580e-01 1.4660631120204926e-01</leafValues></_>
        <_>
          <internalNodes>
            0 -1 137 -1.1334177106618881e-02</internalNodes>
          <leafValues>
            -6.3127303123474121e-01 1.3522990047931671e-01</leafValues></_></weakClassifiers></_>
    <!-- stage 4 -->
    <_>
      <maxWeakCount>8</maxWeakCount>
      <stageThreshold>-1.6096619367599487e+00</stageThreshold>
      <weakClassifiers>
        <_>
          <internalNodes>
            0 -1 80 -5.2713971585035324e-02</internalNodes>
          <leafValues>
            6.3636362552642822e-01 -8.4132844209671021e-01</leafValues></_>
        <_>
          <internalNodes>
            0 -1 142 1.9191596657037735e-03</internalNodes>
          <leafValues>
            -5.6272882223129272e-01 8.5986159741878510e-02</leafValues></_>
        <_>
          <internalNodes>
            0 -1 45 -1.7280543688684702e-03</internalNodes>
          <leafValues>
            -6.0521203279495239e-01 1.1592390388250351e-01</leafValues></_>
        <_>
          <internalNodes>
            0 -1 165 -1.6335880383849144e-02</internalNodes>
          <leafValues>
            -8.2679480314254761e-01 9.5509268343448639e-02</leafValues></_>
        <_>
          <internalNodes>
            0 -1 131 -5.6959828361868858e-04</internalNodes>
          <leafValues>
            4.3394511938095093e-01 -2.0233052968978882e-01</leafValues></_>
        <_>
          <internalNodes>
            0 -1 15 2.9471204616129398e-03</internalNodes>
          <leafValues>
            1.1897362768650055e-01 -7.2705012559890747e-01</leafValues></_>
        <_>
          <internalNodes>
            0 -1 83 1.5526304487138987e-03</internalNodes>
          <leafValues>
            -2.4252662062644958e-01 3.6255863308906555e-01</leafValues></_>
        <_>
          <internalNodes>
            0 -1 99 4.5000361278653145e-03</internalNodes>
          <leafValues>
            1.0615438222885132e-01 -8.0149680376052856e-01</leafValues></_></weakClassifiers></_>
    <!-- stage 5 -->
    <_>
      <maxWeakCount>12</maxWeakCount>
      <stageThreshold>-1.5519924163818359e+00</stageThreshold>
      <weakClassifiers>
        <_>
          <internalNodes>
            0 -1 96 -1.1090818792581558e-02</internalNodes>
          <leafValues>
            3.7500000000000000e-01 -8.4430027008056641e-01</leafValues></_>
        <_>
          <internalNodes>
            0 -1 153 -6.7187445238232613e-03</internalNodes>
          <leafValues>
            2.2036162018775940e-01 -4.6287935972213745e-01</leafValues></_>
        <_>
          <internalNodes>
            0 -1 161 -3.0416082590818405e-03</internalNodes>
          <leafValues>
            -6.6925925016403198e-01 8.7705731391906738e-02</leafValues></_>
        <_>
          <internalNodes>
            0 -1 52 1.5258772764354944e-03</internalNodes>
          <leafValues>
            -3.3120509982109070e-01 2.3382058739662170e-01</leafValues></_>
        <_>
          <internalNodes>
            0 -1 147 3.6208997480571270e-03</internalNodes>
          <leafValues>
            -2.5215989351272583e-01 3.2748189568519592e-01</leafValues></_>
        <_>
          <internalNodes>
            0 -1 172 3.9669417310506105e-04</internalNodes>
          <leafValues>
            -3.7930458784103394e-01 2.4491775035858154e-01</leafValues></_>
        <_>
          <internalNodes>
            0 -1 68 9.7566447220742702e-04</internalNodes>
          <leafValues>
            1.6455025970935822e-01 -4.7517299652099609e-01</leafValues></_>
        <_>
          <internalNodes>
            0 -1 113 9.8880636505782604e-04</internalNodes>
          <leafValues>
            -2.2566168010234833e-01 3.7357351183891296e-01</leafValues></_>
        <_>
          <internalNodes>
            0 -1 87 1.5814288053661585e-04</internalNodes>
          <leafValues>
            -2.7901089191436768e-01 2.9361200332641602e-01</leafValues></_>
        <_>
          <internalNodes>
            0 -1 197 4.9983477219939232e-04</internalNodes>
          <leafValues>
            1.9135402143001556e-01 -4.6704015135765076e-01</leafValues></_>
        <_>
          <internalNodes>
            0 -1 198 -9.5849559875205159e-04</internalNodes>
          <leafValues>
            -4.7876176238059998e-01 1.7202530801296234e-01</leafValues></_>
        <_>
          <internalNodes>
            0 -1 48 3.8369169924408197e-03</internalNodes>
          <leafValues>
            -3.1932860612869263e-01 3.0496293306350708e-01</leafValues></_></weakClassifiers></_>
    <!-- stage 6 -->
    <_>
      <maxWeakCount>11</maxWeakCount>
      <stageThreshold>-1.8132816553115845e+00</stageThreshold>
      <weakClassifiers>
        <_>
          <internalNodes>
            0 -1 27 -1.8692091107368469e-02</internalNodes>
          <leafValues>
            1. -8.3992642164230347e-01</leafValues></_>
        <_>
          <internalNodes>
            0 -1 107 -2.2144041955471039e-02</internalNodes>
          <leafValues>
            4.5687344670295715e-01 -4.4014278054237366e-01</leafValues></_>
        <_>
          <internalNodes>
            0 -1 6 1.1253950744867325e-01</internalNodes>
          <leafValues>
            1.0183887928724289e-01 -8.5956192016601563e-01</leafValues></_>
        <_>
          <internalNodes>
            0 -1 89 3.3859796822071075e-02</internalNodes>
          <leafValues>
            -1.0991436988115311e-01 7.2603440284729004e-01</leafValues></_>
        <_>
          <internalNodes>
            0 -1 98 -4.7403601929545403e-03</internalNodes>
          <leafValues>
            -7.5357645750045776e-01 6.9297797977924347e-02</leafValues></_>
        <_>
          <internalNodes>
            0 -1 104 3.0611464753746986e-03</internalNodes>
          <leafValues>
            -2.6745283603668213e-01 3.1696432828903198e-01</leafValues></_>
        <_>
          <internalNodes>
            0 -1 202 -9.8335265647619963e-04</internalNodes>
          <leafValues>
            -8.9178287982940674e-01 1.1591256409883499e-01</leafValues></_>
        <_>
          <internalNodes>
            0 -1 11 -2.4804260581731796e-02</internalNodes>
          <leafValues>
            -8.5761970281600952e-01 5.6359022855758667e-02</leafValues></_>
        <_>
          <internalNodes>
            0 -1 63 3.0084457248449326e-03</internalNodes>
          <leafValues>
            -2.1032202243804932e-01 3.8334834575653076e-01</leafValues></_>
        <_>
          <internalNodes>
            0 -1 60 -6.7457463592290878e-04</internalNodes>
          <leafValues>
            -4.7621577978134155e-01 2.0814800262451172e-01</leafValues></_>
        <_>
          <internalNodes>
            0 -1 36 -1.3336079427972436e-03</internalNodes>
          <leafValues>
            -4.3960592150688171e-01 1.8728426098823547e-01</leafValues></_></weakClassifiers></_>
    <!-- stage 7 -->
    <_>
      <maxWeakCount>9</maxWeakCount>
      <stageThreshold>-1.5755953788757324e+00</stageThreshold>
      <weakClassifiers>
        <_>
          <internalNodes>
            0 -1 107 -3.1974129378795624e-02</internalNodes>
          <leafValues>
            4.2857143282890320e-01 -8.4273821115493774e-01</leafValues></_>
        <_>
          <internalNodes>
            0 -1 143 1.6520000062882900e-03</internalNodes>
          <leafValues>
            -5.0324273109436035e-01 2.4050852283835411e-02</leafValues></_>
        <_>
          <internalNodes>
            0 -1 126 4.6468339860439301e-02</internalNodes>
          <leafValues>
            8.2016162574291229e-02 -6.1402618885040283e-01</leafValues></_>
        <_>
          <internalNodes>
            0 -1 194 -1.2214728631079197e-03</internalNodes>
          <leafValues>
            -4.2975467443466187e-01 1.6084319353103638e-01</leafValues></_>
        <_>
          <internalNodes>
            0 -1 170 7.4558751657605171e-04</internalNodes>
          <leafValues>
            -2.4614715576171875e-01 2.9379782080650330e-01</leafValues></_>
        <_>
          <internalNodes>
            0 -1 112 7.3966669151559472e-04</internalNodes>
          <leafValues>
            -2.4880857765674591e-01 2.8348717093467712e-01</leafValues></_>
        <_>
          <internalNodes>
            0 -1 4 -2.1302697714418173e-03</internalNodes>
          <leafValues>
            2.7074661850929260e-01 -2.7196410298347473e-01</leafValues></_>
        <_>
          <internalNodes>
            0 -1 7 -9.7757042385637760e-04</internalNodes>
          <leafValues>
            -4.1389119625091553e-01 2.3182968795299530e-01</leafValues></_>
        <_>
          <internalNodes>
            0 -1 189 5.1581708248704672e-05</internalNodes>
          <leafValues>
            -3.0336496233940125e-01 2.6601254940032959e-01</leafValues></_></weakClassifiers></_>
    <!-- stage 8 -->
    <_>
      <maxWeakCount>12</maxWeakCount>
      <stageThreshold>-1.7337665557861328e+00</stageThreshold>
      <weakClassifiers>
        <_>
          <internalNodes>
            0 -1 71 -1.2043202295899391e-02</internalNodes>
          <leafValues>
            1. -8.3823531866073608e-01</leafValues></_>
        <_>
          <internalNodes>
            0 -1 151 4.4981269165873528e-03</internalNodes>
          <leafValues>
            -4.8320254683494568e-01 1.8638922274112701e-01</leafValues></_>
        <_>
          <internalNodes>
            0 -1 196 -3.1591363949701190e-04</internalNodes>
          <leafValues>
            2.0669320225715637e-01 -3.6116257309913635e-01</leafValues></_>
        <_>
          <internalNodes>
            0 -1 41 4.5594787225127220e-03</internalNodes>
          <leafValues>
            -1.8604627251625061e-01 4.1225424408912659e-01</leafValues></_>
        <_>
          <internalNodes>
            0 -1 91 7.8200744464993477e-03</internalNodes>
          <leafValues>
            -2.7852723002433777e-01 2.9279202222824097e-01</leafValues></_>
        <_>
          <internalNodes>
            0 -1 61 -1.7284412169829011e-03</internalNodes>
          <leafValues>
            -5.3163158893585205e-01 2.0052452385425568e-01</leafValues></_>
        <_>
          <internalNodes>
            0 -1 128 1.4945539878681302e-03</internalNodes>
          <leafValues>
            -2.4829195439815521e-01 3.2648694515228271e-01</leafValues></_>
        <_>
          <internalNodes>
            0 -1 50 1.0274908709106967e-04</internalNodes>
          <leafValues>
            -3.2559886574745178e-01 2.6335594058036804e-01</leafValues></_>
        <_>
          <internalNodes>
            0 -1 23 -1.2561304029077291e-03</internalNodes>
          <leafValues>
            -7.7096623182296753e-01 1.1745126545429230e-01</leafValues></_>
        <_>
          <internalNodes>
            0 -1 72 -4.1644327575340867e-04</internalNodes>
          <leafValues>
            3.7450876832008362e-01 -2.2810889780521393e-01</leafValues></_>
        <_>
          <internalNodes>
            0 -1 180 -3.3620358444750309e-03</internalNodes>
          <leafValues>
            -4.5954868197441101e-01 1.9889780879020691e-01</leafValues></_>
        <_>
          <internalNodes>
            0 -1 125 -5.5653916206210852e-04</internalNodes>
          <leafValues>
            -5.6389856338500977e-01 1.3067765533924103e-01</leafValues></_></weakClassifiers></_>
    <!-- stage 9 -->
    <_>
      <maxWeakCount>9</maxWeakCount>
      <stageThreshold>-1.4812648296356201e+00</stageThreshold>
      <weakClassifiers>
        <_>
          <internalNodes>
            0 -1 154 -1.4634659513831139e-02</internalNodes>
          <leafValues>
            4.5454546809196472e-01 -8.3948338031768799e-01</leafValues></_>
        <_>
          <internalNodes>
            0 -1 84 3.1803031452000141e-03</internalNodes>
          <leafValues>
            -5.0818836688995361e-01 2.1181982010602951e-03</leafValues></_>
        <_>
          <internalNodes>
            0 -1 17 -1.0090097784996033e-02</internalNodes>
          <leafValues>
            -7.7348381280899048e-01 6.7326135933399200e-02</leafValues></_>
        <_>
          <internalNodes>
            0 -1 73 -3.0558165162801743e-03</internalNodes>
          <leafValues>
            -4.0871798992156982e-01 1.9599893689155579e-01</leafValues></_>
        <_>
          <internalNodes>
            0 -1 138 9.9465437233448029e-03</internalNodes>
          <leafValues>
            -2.4780221283435822e-01 3.1395590305328369e-01</leafValues></_>
        <_>
          <internalNodes>
            0 -1 79 6.7215203307569027e-04</internalNodes>
          <leafValues>
            -2.9329279065132141e-01 2.8429582715034485e-01</leafValues></_>
        <_>
          <internalNodes>
            0 -1 0 -5.2436972036957741e-03</internalNodes>
          <leafValues>
            3.1350073218345642e-01 -2.5263643264770508e-01</leafValues></_>
        <_>
          <internalNodes>
            0 -1 121 -2.7048692572861910e-03</internalNodes>
          <leafValues>
            -6.7589253187179565e-01 1.2216123938560486e-01</leafValues></_>
        <_>
          <internalNodes>
            0 -1 148 -2.2032484412193298e-03</internalNodes>
          <leafValues>
            3.6333373188972473e-01 -2.3565445840358734e-01</leafValues></_></weakClassifiers></_>
    <!-- stage 10 -->
    <_>
      <maxWeakCount>12</maxWeakCount>
      <stageThreshold>-1.5193938016891479e+00</stageThreshold>
      <weakClassifiers>
        <_>
          <internalNodes>
            0 -1 159 -5.1656685769557953e-02</internalNodes>
          <leafValues>
            1. -8.3654731512069702e-01</leafValues></_>
        <_>
          <internalNodes>
            0 -1 182 1.0555549524724483e-03</internalNodes>
          <leafValues>
            -5.1010459661483765e-01 -9.2904465273022652e-03</leafValues></_>
        <_>
          <internalNodes>
            0 -1 201 1.8117630388587713e-03</internalNodes>
          <leafValues>
            1.0113751888275146e-01 -5.0332021713256836e-01</leafValues></_>
        <_>
          <internalNodes>
            0 -1 168 -8.2496448885649443e-04</internalNodes>
          <leafValues>
            -3.8632521033287048e-01 1.6736659407615662e-01</leafValues></_>
        <_>
          <internalNodes>
            0 -1 190 6.3586793839931488e-04</internalNodes>
          <leafValues>
            -2.4954970180988312e-01 2.8678175806999207e-01</leafValues></_>
        <_>
          <internalNodes>
            0 -1 183 -2.0192451775074005e-03</internalNodes>
          <leafValues>
            2.8760865330696106e-01 -2.7214622497558594e-01</leafValues></_>
        <_>
          <internalNodes>
            0 -1 177 -7.8281670808792114e-02</internalNodes>
          <leafValues>
            -9.1188627481460571e-01 9.0264558792114258e-02</leafValues></_>
        <_>
          <internalNodes>
            0 -1 134 -1.4786450192332268e-03</internalNodes>
          <leafValues>
            -4.1799861192703247e-01 1.5268610417842865e-01</leafValues></_>
        <_>
          <internalNodes>
            0 -1 28 1.5545285714324564e-04</internalNodes>
          <leafValues>
            -2.7866026759147644e-01 2.9627925157546997e-01</leafValues></_>
        <_>
          <internalNodes>
            0 -1 29 2.8212498873472214e-03</internalNodes>
          <leafValues>
            -2.7130430936813354e-01 2.8892743587493896e-01</leafValues></_>
        <_>
          <internalNodes>
            0 -1 37 7.1608508005738258e-04</internalNodes>
          <leafValues>
            -2.8025850653648376e-01 2.8186634182929993e-01</leafValues></_>
        <_>
          <internalNodes>
            0 -1 46 9.5394330855924636e-05</internalNodes>
          <leafValues>
            -3.2709044218063354e-01 2.4829475581645966e-01</leafValues></_></weakClassifiers></_>
    <!-- stage 11 -->
    <_>
      <maxWeakCount>11</maxWeakCount>
      <stageThreshold>-1.4788591861724854e+00</stageThreshold>
      <weakClassifiers>
        <_>
          <internalNodes>
            0 -1 175 -3.1267784535884857e-02</internalNodes>
          <leafValues>
            1. -8.3654731512069702e-01</leafValues></_>
        <_>
          <internalNodes>
            0 -1 97 1.1410965584218502e-02</internalNodes>
          <leafValues>
            -4.4563156366348267e-01 2.5898045301437378e-01</leafValues></_>
        <_>
          <internalNodes>
            0 -1 123 3.8709919317625463e-04</internalNodes>
          <leafValues>
            -3.2659223675727844e-01 2.2754631936550140e-01</leafValues></_>
        <_>
          <internalNodes>
            0 -1 150 -1.6754466923885047e-04</internalNodes>
          <leafValues>
            -3.2671278715133667e-01 2.0577047765254974e-01</leafValues></_>
        <_>
          <internalNodes>
            0 -1 132 2.2225265856832266e-03</internalNodes>
          <leafValues>
            -2.0963823795318604e-01 3.2159352302551270e-01</leafValues></_>
        <_>
          <internalNodes>
            0 -1 135 -1.1167521734023467e-04</internalNodes>
          <leafValues>
            -2.5971889495849609e-01 2.8326448798179626e-01</leafValues></_>
        <_>
          <internalNodes>
            0 -1 144 2.2552353329956532e-03</internalNodes>
          <leafValues>
            -2.1811917424201965e-01 3.6452454328536987e-01</leafValues></_>
        <_>
          <internalNodes>
            0 -1 8 2.9684498906135559e-02</internalNodes>
          <leafValues>
            1.2598837912082672e-01 -6.0866957902908325e-01</leafValues></_>
        <_>
          <internalNodes>
            0 -1 13 6.7838453105650842e-05</internalNodes>
          <leafValues>
            -3.0900377035140991e-01 2.4275222420692444e-01</leafValues></_>
        <_>
          <internalNodes>
            0 -1 70 -2.6671271771192551e-03</internalNodes>
          <leafValues>
            -3.6018651723861694e-01 1.9443151354789734e-01</leafValues></_>
        <_>
          <internalNodes>
            0 -1 120 7.2433594614267349e-03</internalNodes>
          <leafValues>
            6.8969920277595520e-02 -9.4452172517776489e-01</leafValues></_></weakClassifiers></_>
    <!-- stage 12 -->
    <_>
      <maxWeakCount>11</maxWeakCount>
      <stageThreshold>-1.8737633228302002e+00</stageThreshold>
      <weakClassifiers>
        <_>
          <internalNodes>
            0 -1 53 -2.0514309406280518e-02</internalNodes>
          <leafValues>
            4.5454546809196472e-01 -8.3948338031768799e-01</leafValues></_>
        <_>
          <internalNodes>
            0 -1 164 -1.4717758633196354e-02</internalNodes>
          <leafValues>
            6.0775351524353027e-01 -4.1629996895790100e-01</leafValues></_>
        <_>
          <internalNodes>
            0 -1 118 -5.6033290456980467e-04</internalNodes>
          <leafValues>
            -3.4709998965263367e-01 1.9821405410766602e-01</leafValues></_>
        <_>
          <internalNodes>
            0 -1 58 -3.3503621816635132e-03</internalNodes>
          <leafValues>
            5.2217984199523926e-01 -1.6014093160629272e-01</leafValues></_>
        <_>
          <internalNodes>
            0 -1 69 6.9566562771797180e-02</internalNodes>
          <leafValues>
            8.5201099514961243e-02 -8.5387331247329712e-01</leafValues></_>
        <_>
          <internalNodes>
            0 -1 78 -4.1387040168046951e-02</internalNodes>
          <leafValues>
            -7.4191653728485107e-01 9.7618326544761658e-02</leafValues></_>
        <_>
          <internalNodes>
            0 -1 40 2.6892913505434990e-02</internalNodes>
          <leafValues>
            -1.3424335420131683e-01 5.6116873025894165e-01</leafValues></_>
        <_>
          <internalNodes>
            0 -1 85 -2.5901911430992186e-04</internalNodes>
          <leafValues>
            -4.5475637912750244e-01 1.8810419738292694e-01</leafValues></_>
        <_>
          <internalNodes>
            0 -1 26 -1.3121133670210838e-03</internalNodes>
          <leafValues>
            -3.7530949711799622e-01 1.6519302129745483e-01</leafValues></_>
        <_>
          <internalNodes>
            0 -1 187 6.2068647821433842e-05</internalNodes>
          <leafValues>
            -2.6846140623092651e-01 2.8573507070541382e-01</leafValues></_>
        <_>
          <internalNodes>
            0 -1 156 -1.9402716308832169e-02</internalNodes>
          <leafValues>
            2.5970223546028137e-01 -3.1039634346961975e-01</leafValues></_></weakClassifiers></_>
    <!-- stage 13 -->
    <_>
      <maxWeakCount>9</maxWeakCount>
      <stageThreshold>-1.5280877351760864e+00</stageThreshold>
      <weakClassifiers>
        <_>
          <internalNodes>
            0 -1 95 4.3871507048606873e-02</internalNodes>
          <leafValues>
            -8.3654731512069702e-01 1.</leafValues></_>
        <_>
          <internalNodes>
            0 -1 108 4.4821277260780334e-03</internalNodes>
          <leafValues>
            -5.6297206878662109e-01 -7.2902366518974304e-02</leafValues></_>
        <_>
          <internalNodes>
            0 -1 30 6.5815653651952744e-03</internalNodes>
          <leafValues>
            5.5915035307407379e-02 -7.6949608325958252e-01</leafValues></_>
        <_>
          <internalNodes>
            0 -1 203 -7.4720522388815880e-03</internalNodes>
          <leafValues>
            -6.4200282096862793e-01 1.2971223890781403e-01</leafValues></_>
        <_>
          <internalNodes>
            0 -1 157 2.9045911505818367e-03</internalNodes>
          <leafValues>
            -2.4251927435398102e-01 2.9264739155769348e-01</leafValues></_>
        <_>
          <internalNodes>
            0 -1 66 1.3226771261543036e-04</internalNodes>
          <leafValues>
            -2.9712915420532227e-01 2.4422860145568848e-01</leafValues></_>
        <_>
          <internalNodes>
            0 -1 32 -3.9696358144283295e-02</internalNodes>
          <leafValues>
            7.8923398256301880e-01 -9.7104467451572418e-02</leafValues></_>
        <_>
          <internalNodes>
            0 -1 14 -1.9738730043172836e-03</internalNodes>
          <leafValues>
            -6.5674442052841187e-01 1.3368858397006989e-01</leafValues></_>
        <_>
          <internalNodes>
            0 -1 176 -1.5784586139488965e-05</internalNodes>
          <leafValues>
            -3.4629797935485840e-01 1.9070746004581451e-01</leafValues></_></weakClassifiers></_>
    <!-- stage 14 -->
    <_>
      <maxWeakCount>11</maxWeakCount>
      <stageThreshold>-1.6376327276229858e+00</stageThreshold>
      <weakClassifiers>
        <_>
          <internalNodes>
            0 -1 34 -4.9787938594818115e-02</internalNodes>
          <leafValues>
            1. -8.3486241102218628e-01</leafValues></_>
        <_>
          <internalNodes>
            0 -1 54 6.4924666658043861e-03</internalNodes>
          <leafValues>
            -4.5711275935173035e-01 1.6866709291934967e-01</leafValues></_>
        <_>
          <internalNodes>
            0 -1 205 2.8495416045188904e-03</internalNodes>
          <leafValues>
            7.8489534556865692e-02 -6.0680043697357178e-01</leafValues></_>
        <_>
          <internalNodes>
            0 -1 100 -2.1341278625186533e-04</internalNodes>
          <leafValues>
            -3.3718225359916687e-01 1.8799814581871033e-01</leafValues></_>
        <_>
          <internalNodes>
            0 -1 86 6.4705777913331985e-04</internalNodes>
          <leafValues>
            -2.6067742705345154e-01 2.8208708763122559e-01</leafValues></_>
        <_>
          <internalNodes>
            0 -1 185 8.7773788254708052e-04</internalNodes>
          <leafValues>
            -2.0539335906505585e-01 3.1935393810272217e-01</leafValues></_>
        <_>
          <internalNodes>
            0 -1 115 7.4579846113920212e-04</internalNodes>
          <leafValues>
            -2.4823641777038574e-01 2.7658796310424805e-01</leafValues></_>
        <_>
          <internalNodes>
            0 -1 21 -6.3177337870001793e-04</internalNodes>
          <leafValues>
            -3.2421147823333740e-01 2.3328150808811188e-01</leafValues></_>
        <_>
          <internalNodes>
            0 -1 127 -3.2586283050477505e-03</internalNodes>
          <leafValues>
            6.0155391693115234e-01 -1.4508053660392761e-01</leafValues></_>
        <_>
          <internalNodes>
            0 -1 114 9.4510959461331367e-03</internalNodes>
          <leafValues>
            -9.5831610262393951e-02 6.8671524524688721e-01</leafValues></_>
        <_>
          <internalNodes>
            0 -1 81 3.0222877860069275e-02</internalNodes>
          <leafValues>
            1.1022572219371796e-01 -7.5184738636016846e-01</leafValues></_></weakClassifiers></_>
    <!-- stage 15 -->
    <_>
      <maxWeakCount>11</maxWeakCount>
      <stageThreshold>-1.7715044021606445e+00</stageThreshold>
      <weakClassifiers>
        <_>
          <internalNodes>
            0 -1 167 -8.8969431817531586e-03</internalNodes>
          <leafValues>
            1.0000000149011612e-01 -8.4372091293334961e-01</leafValues></_>
        <_>
          <internalNodes>
            0 -1 105 1.7091810703277588e-02</internalNodes>
          <leafValues>
            -5.0495088100433350e-01 2.8176654130220413e-02</leafValues></_>
        <_>
          <internalNodes>
            0 -1 136 -3.2654620008543134e-04</internalNodes>
          <leafValues>
            -3.8685047626495361e-01 1.7539806663990021e-01</leafValues></_>
        <_>
          <internalNodes>
            0 -1 199 2.5839748559519649e-04</internalNodes>
          <leafValues>
            -2.3714663088321686e-01 2.7710828185081482e-01</leafValues></_>
        <_>
          <internalNodes>
            0 -1 173 7.1446230867877603e-04</internalNodes>
          <leafValues>
            -2.1765851974487305e-01 3.0274561047554016e-01</leafValues></_>
        <_>
          <internalNodes>
            0 -1 55 2.0014505833387375e-02</internalNodes>
          <leafValues>
            1.2218572199344635e-01 -8.2297450304031372e-01</leafValues></_>
        <_>
          <internalNodes>
            0 -1 16 4.7594954958185554e-04</internalNodes>
          <leafValues>
            -2.7596461772918701e-01 2.2077143192291260e-01</leafValues></_>
        <_>
          <internalNodes>
            0 -1 49 3.7545597297139466e-04</internalNodes>
          <leafValues>
            -2.5966325402259827e-01 2.6709350943565369e-01</leafValues></_>
        <_>
          <internalNodes>
            0 -1 59 -8.4271887317299843e-03</internalNodes>
          <leafValues>
            4.1540035605430603e-01 -1.5769344568252563e-01</leafValues></_>
        <_>
          <internalNodes>
            0 -1 65 -4.1344896890223026e-03</internalNodes>
          <leafValues>
            -5.3760045766830444e-01 1.1811585724353790e-01</leafValues></_>
        <_>
          <internalNodes>
            0 -1 188 1.2092452961951494e-03</internalNodes>
          <leafValues>
            -1.8804152309894562e-01 3.6192953586578369e-01</leafValues></_></weakClassifiers></_>
    <!-- stage 16 -->
    <_>
      <maxWeakCount>13</maxWeakCount>
      <stageThreshold>-1.7525736093521118e+00</stageThreshold>
      <weakClassifiers>
        <_>
          <internalNodes>
            0 -1 42 -1.4946088194847107e-02</internalNodes>
          <leafValues>
            1. -8.3654731512069702e-01</leafValues></_>
        <_>
          <internalNodes>
            0 -1 146 2.3534000501967967e-04</internalNodes>
          <leafValues>
            -5.5739742517471313e-01 -7.0104159414768219e-02</leafValues></_>
        <_>
          <internalNodes>
            0 -1 88 2.4139301385730505e-03</internalNodes>
          <leafValues>
            -2.6629659533500671e-01 2.9083877801895142e-01</leafValues></_>
        <_>
          <internalNodes>
            0 -1 19 -8.0065026879310608e-02</internalNodes>
          <leafValues>
            -1. 6.0285158455371857e-02</leafValues></_>
        <_>
          <internalNodes>
            0 -1 192 -4.3137874454259872e-03</internalNodes>
          <leafValues>
            -6.4692920446395874e-01 9.8625198006629944e-02</leafValues></_>
        <_>
          <internalNodes>
            0 -1 110 -3.7596574984490871e-03</internalNodes>
          <leafValues>
            4.1023150086402893e-01 -1.5532055497169495e-01</leafValues></_>
        <_>
          <internalNodes>
            0 -1 119 3.0238558538258076e-03</internalNodes>
          <leafValues>
            -1.9881786406040192e-01 3.6641988158226013e-01</leafValues></_>
        <_>
          <internalNodes>
            0 -1 56 2.5172196910716593e-04</internalNodes>
          <leafValues>
            -2.2195841372013092e-01 2.8539526462554932e-01</leafValues></_>
        <_>
          <internalNodes>
            0 -1 103 4.8793768510222435e-03</internalNodes>
          <leafValues>
            -2.0914345979690552e-01 2.9958817362785339e-01</leafValues></_>
        <_>
          <internalNodes>
            0 -1 193 -2.0157395920250565e-04</internalNodes>
          <leafValues>
            2.2982484102249146e-01 -3.0335089564323425e-01</leafValues></_>
        <_>
          <internalNodes>
            0 -1 184 9.4393920153379440e-04</internalNodes>
          <leafValues>
            -1.8681414425373077e-01 4.0479740500450134e-01</leafValues></_>
        <_>
          <internalNodes>
            0 -1 122 -8.3964653313159943e-03</internalNodes>
          <leafValues>
            -6.7958652973175049e-01 9.7724504768848419e-02</leafValues></_>
        <_>
          <internalNodes>
            0 -1 31 -1.1570407077670097e-02</internalNodes>
          <leafValues>
            3.7738353013992310e-01 -1.9593492150306702e-01</leafValues></_></weakClassifiers></_>
    <!-- stage 17 -->
    <_>
      <maxWeakCount>12</maxWeakCount>
      <stageThreshold>-1.8579353094100952e+00</stageThreshold>
      <weakClassifiers>
        <_>
          <internalNodes>
            0 -1 178 -3.3611383289098740e-02</internalNodes>
          <leafValues>
            1. -8.3823531866073608e-01</leafValues></_>
        <_>
          <internalNodes>
            0 -1 145 -1.0101331397891045e-02</internalNodes>
          <leafValues>
            5.9356850385665894e-01 -4.1047540307044983e-01</leafValues></_>
        <_>
          <internalNodes>
            0 -1 18 1.5909282956272364e-03</internalNodes>
          <leafValues>
            1.3399246335029602e-01 -5.2764838933944702e-01</leafValues></_>
        <_>
          <internalNodes>
            0 -1 74 6.1139240860939026e-03</internalNodes>
          <leafValues>
            7.2146512567996979e-02 -8.4262299537658691e-01</leafValues></_>
        <_>
          <internalNodes>
            0 -1 158 -9.9439595942385495e-05</internalNodes>
          <leafValues>
            -2.8190484642982483e-01 2.4680037796497345e-01</leafValues></_>
        <_>
          <internalNodes>
            0 -1 67 -8.3345570601522923e-04</internalNodes>
          <leafValues>
            -4.3144780397415161e-01 1.4772100746631622e-01</leafValues></_>
        <_>
          <internalNodes>
            0 -1 51 1.6769863665103912e-01</internalNodes>
          <leafValues>
            1.5396927297115326e-01 -5.3942537307739258e-01</leafValues></_>
        <_>
          <internalNodes>
            0 -1 117 1.5230176970362663e-02</internalNodes>
          <leafValues>
            -2.8111785650253296e-01 3.1299817562103271e-01</leafValues></_>
        <_>
          <internalNodes>
            0 -1 166 -2.4632848799228668e-03</internalNodes>
          <leafValues>
            5.0328165292739868e-01 -1.5913291275501251e-01</leafValues></_>
        <_>
          <internalNodes>
            0 -1 39 1.2885190546512604e-02</internalNodes>
          <leafValues>
            1.4541010558605194e-01 -4.8528262972831726e-01</leafValues></_>
        <_>
          <internalNodes>
            0 -1 33 -2.1700287237763405e-02</internalNodes>
          <leafValues>
            4.6143940091133118e-01 -1.5983000397682190e-01</leafValues></_>
        <_>
          <internalNodes>
            0 -1 186 2.2457403247244656e-04</internalNodes>
          <leafValues>
            1.9869042932987213e-01 -4.3959751725196838e-01</leafValues></_></weakClassifiers></_>
    <!-- stage 18 -->
    <_>
      <maxWeakCount>10</maxWeakCount>
      <stageThreshold>-1.8104252815246582e+00</stageThreshold>
      <weakClassifiers>
        <_>
          <internalNodes>
            0 -1 57 -4.4390045106410980e-02</internalNodes>
          <leafValues>
            1. -8.3992642164230347e-01</leafValues></_>
        <_>
          <internalNodes>
            0 -1 174 1.5339625999331474e-02</internalNodes>
          <leafValues>
            -4.5882338285446167e-01 3.2593682408332825e-01</leafValues></_>
        <_>
          <internalNodes>
            0 -1 191 -1.9012167467735708e-04</internalNodes>
          <leafValues>
            2.9274415969848633e-01 -2.5231984257698059e-01</leafValues></_>
        <_>
          <internalNodes>
            0 -1 101 3.1328718177974224e-03</internalNodes>
          <leafValues>
            7.9010099172592163e-02 -9.3010485172271729e-01</leafValues></_>
        <_>
          <internalNodes>
            0 -1 160 -6.2584499828517437e-03</internalNodes>
          <leafValues>
            -8.5045260190963745e-01 9.2481248080730438e-02</leafValues></_>
        <_>
          <internalNodes>
            0 -1 181 1.3501310604624450e-04</internalNodes>
          <leafValues>
            -2.3063348233699799e-01 3.7809109687805176e-01</leafValues></_>
        <_>
          <internalNodes>
            0 -1 93 -1.5668254345655441e-02</internalNodes>
          <leafValues>
            3.4483516216278076e-01 -2.7363365888595581e-01</leafValues></_>
        <_>
          <internalNodes>
            0 -1 200 -8.4607664030045271e-04</internalNodes>
          <leafValues>
            -3.7645795941352844e-01 2.2817932069301605e-01</leafValues></_>
        <_>
          <internalNodes>
            0 -1 76 8.5598947480320930e-03</internalNodes>
          <leafValues>
            1.0892325639724731e-01 -8.7655699253082275e-01</leafValues></_>
        <_>
          <internalNodes>
            0 -1 102 2.1993820555508137e-03</internalNodes>
          <leafValues>
            -2.6776969432830811e-01 3.8728448748588562e-01</leafValues></_></weakClassifiers></_>
    <!-- stage 19 -->
    <_>
      <maxWeakCount>12</maxWeakCount>
      <stageThreshold>-1.5767987966537476e+00</stageThreshold>
      <weakClassifiers>
        <_>
          <internalNodes>
            0 -1 20 -4.6965457499027252e-02</internalNodes>
          <leafValues>
            4.5454546809196472e-01 -8.5274928808212280e-01</leafValues></_>
        <_>
          <internalNodes>
            0 -1 179 -3.8068997673690319e-03</internalNodes>
          <leafValues>
            5.5070239305496216e-01 -4.7049275040626526e-01</leafValues></_>
        <_>
          <internalNodes>
            0 -1 195 3.1570380087941885e-04</internalNodes>
          <leafValues>
            1.7254900932312012e-01 -5.6876182556152344e-01</leafValues></_>
        <_>
          <internalNodes>
            0 -1 163 6.0422753449529409e-04</internalNodes>
          <leafValues>
            1.9866141676902771e-01 -5.1562076807022095e-01</leafValues></_>
        <_>
          <internalNodes>
            0 -1 124 4.5826751738786697e-04</internalNodes>
          <leafValues>
            2.9260101914405823e-01 -3.9866015315055847e-01</leafValues></_>
        <_>
          <internalNodes>
            0 -1 43 -3.4328915644437075e-03</internalNodes>
          <leafValues>
            4.7059944272041321e-01 -2.6478099822998047e-01</leafValues></_>
        <_>
          <internalNodes>
            0 -1 130 -5.3400610340759158e-04</internalNodes>
          <leafValues>
            4.7355157136917114e-01 -3.0127924680709839e-01</leafValues></_>
        <_>
          <internalNodes>
            0 -1 75 -9.9304458126425743e-04</internalNodes>
          <leafValues>
            -5.9002071619033813e-01 2.4357080459594727e-01</leafValues></_>
        <_>
          <internalNodes>
            0 -1 24 -2.3341770283877850e-03</internalNodes>
          <leafValues>
            5.7042878866195679e-01 -2.6250949501991272e-01</leafValues></_>
        <_>
          <internalNodes>
            0 -1 10 1.6977998893707991e-03</internalNodes>
          <leafValues>
            2.1646466851234436e-01 -7.0829468965530396e-01</leafValues></_>
        <_>
          <internalNodes>
            0 -1 64 1.0833297856152058e-03</internalNodes>
          <leafValues>
            -2.4988976120948792e-01 5.6932866573333740e-01</leafValues></_>
        <_>
          <internalNodes>
            0 -1 162 7.6536722481250763e-03</internalNodes>
          <leafValues>
            -2.4018351733684540e-01 5.0625061988830566e-01</leafValues></_></weakClassifiers></_></stages>
  <features>
    <_>
      <rects>
        <_>
          0 0 4 19 -1.</_>
        <_>
          2 0 2 19 2.</_></rects>
      <tilted>0</tilted></_>
    <_>
      <rects>
        <_>
          0 1 14 12 -1.</_>
        <_>
          0 1 7 6 2.</_>
        <_>
          7 7 7 6 2.</_></rects>
      <tilted>0</tilted></_>
    <_>
      <rects>
        <_>
          0 2 10 14 -1.</_>
        <_>
          5 2 5 14 2.</_></rects>
      <tilted>0</tilted></_>
    <_>
      <rects>
        <_>
          0 5 3 15 -1.</_>
        <_>
          0 10 3 5 3.</_></rects>
      <tilted>0</tilted></_>
    <_>
      <rects>
        <_>
          0 6 4 16 -1.</_>
        <_>
          2 6 2 16 2.</_></rects>
      <tilted>0</tilted></_>
    <_>
      <rects>
        <_>
          0 6 24 13 -1.</_>
        <_>
          8 6 8 13 3.</_></rects>
      <tilted>0</tilted></_>
    <_>
      <rects>
        <_>
          0 6 19 15 -1.</_>
        <_>
          0 11 19 5 3.</_></rects>
      <tilted>0</tilted></_>
    <_>
      <rects>
        <_>
          0 7 6 4 -1.</_>
        <_>
          2 7 2 4 3.</_></rects>
      <tilted>0</tilted></_>
    <_>
      <rects>
        <_>
          0 9 17 9 -1.</_>
        <_>
          0 12 17 3 3.</_></rects>
      <tilted>0</tilted></_>
    <_>
      <rects>
        <_>
          0 11 2 12 -1.</_>
        <_>
          0 15 2 4 3.</_></rects>
      <tilted>0</tilted></_>
    <_>
      <rects>
        <_>
          0 15 3 3 -1.</_>
        <_>
          1 15 1 3 3.</_></rects>
      <tilted>0</tilted></_>
    <_>
      <rects>
        <_>
          0 15 14 4 -1.</_>
        <_>
          0 17 14 2 2.</_></rects>
      <tilted>0</tilted></_>
    <_>
      <rects>
        <_>
          0 15 19 3 -1.</_>
        <_>
          0 16 19 1 3.</_></rects>
      <tilted>0</tilted></_>
    <_>
      <rects>
        <_>
          0 17 3 2 -1.</_>
        <_>
          1 17 1 2 3.</_></rects>
      <tilted>0</tilted></_>
    <_>
      <rects>
        <_>
          0 17 2 4 -1.</_>
        <_>
          0 17 1 2 2.</_>
        <_>
          1 19 1 2 2.</_></rects>
      <tilted>0</tilted></_>
    <_>
      <rects>
        <_>
          0 17 4 4 -1.</_>
        <_>
          0 17 2 2 2.</_>
        <_>
          2 19 2 2 2.</_></rects>
      <tilted>0</tilted></_>
    <_>
      <rects>
        <_>
          0 18 1 6 -1.</_>
        <_>
          0 20 1 2 3.</_></rects>
      <tilted>0</tilted></_>
    <_>
      <rects>
        <_>
          1 2 1 12 -1.</_>
        <_>
          1 6 1 4 3.</_></rects>
      <tilted>0</tilted></_>
    <_>
      <rects>
        <_>
          1 3 1 6 -1.</_>
        <_>
          1 5 1 2 3.</_></rects>
      <tilted>0</tilted></_>
    <_>
      <rects>
        <_>
          1 3 8 10 -1.</_>
        <_>
          5 3 4 10 2.</_></rects>
      <tilted>0</tilted></_>
    <_>
      <rects>
        <_>
          1 5 9 5 -1.</_>
        <_>
          4 5 3 5 3.</_></rects>
      <tilted>0</tilted></_>
    <_>
      <rects>
        <_>
          1 6 3 12 -1.</_>
        <_>
          2 6 1 12 3.</_></rects>
      <tilted>0</tilted></_>
    <_>
      <rects>
        <_>
          1 6 17 2 -1.</_>
        <_>
          1 7 17 1 2.</_></rects>
      <tilted>0</tilted></_>
    <_>
      <rects>
        <_>
          1 12 1 3 -1.</_>
        <_>
          1 13 1 1 3.</_></rects>
      <tilted>0</tilted></_>
    <_>
      <rects>
        <_>
          1 13 2 8 -1.</_>
        <_>
          2 13 1 8 2.</_></rects>
      <tilted>0</tilted></_>
    <_>
      <rects>
        <_>
          1 15 2 1 -1.</_>
        <_>
          2 15 1 1 2.</_></rects>
      <tilted>0</tilted></_>
    <_>
      <rects>
        <_>
          1 15 6 6 -1.</_>
        <_>
          1 17 6 2 3.</_></rects>
      <tilted>0</tilted></_>
    <_>
      <rects>
        <_>
          1 16 9 1 -1.</_>
        <_>
          4 16 3 1 3.</_></rects>
      <tilted>0</tilted></_>
    <_>
      <rects>
        <_>
          1 19 3 3 -1.</_>
        <_>
          2 19 1 3 3.</_></rects>
      <tilted>0</tilted></_>
    <_>
      <rects>
        <_>
          1 21 12 3 -1.</_>
        <_>
          5 21 4 3 3.</_></rects>
      <tilted>0</tilted></_>
    <_>
      <rects>
        <_>
          2 0 9 1 -1.</_>
        <_>
          5 0 3 1 3.</_></rects>
      <tilted>0</tilted></_>
    <_>
      <rects>
        <_>
          2 1 9 4 -1.</_>
        <_>
          5 1 3 4 3.</_></rects>
      <tilted>0</tilted></_>
    <_>
      <rects>
        <_>
          2 2 3 12 -1.</_>
        <_>
          2 6 3 4 3.</_></rects>
      <tilted>0</tilted></_>
    <_>
      <rects>
        <_>
          2 2 14 5 -1.</_>
        <_>
          9 2 7 5 2.</_></rects>
      <tilted>0</tilted></_>
    <_>
      <rects>
        <_>
          2 3 4 18 -1.</_>
        <_>
          2 3 2 9 2.</_>
        <_>
          4 12 2 9 2.</_></rects>
      <tilted>0</tilted></_>
    <_>
      <rects>
        <_>
          2 6 1 3 -1.</_>
        <_>
          2 7 1 1 3.</_></rects>
      <tilted>0</tilted></_>
    <_>
      <rects>
        <_>
          2 6 3 10 -1.</_>
        <_>
          3 6 1 10 3.</_></rects>
      <tilted>0</tilted></_>
    <_>
      <rects>
        <_>
          2 6 6 7 -1.</_>
        <_>
          4 6 2 7 3.</_></rects>
      <tilted>0</tilted></_>
    <_>
      <rects>
        <_>
          2 6 16 2 -1.</_>
        <_>
          2 7 16 1 2.</_></rects>
      <tilted>0</tilted></_>
    <_>
      <rects>
        <_>
          2 10 22 6 -1.</_>
        <_>
          2 12 22 2 3.</_></rects>
      <tilted>0</tilted></_>
    <_>
      <rects>
        <_>
          2 13 10 6 -1.</_>
        <_>
          2 13 5 3 2.</_>
        <_>
          7 16 5 3 2.</_></rects>
      <tilted>0</tilted></_>
    <_>
      <rects>
        <_>
          2 17 12 1 -1.</_>
        <_>
          6 17 4 1 3.</_></rects>
      <tilted>0</tilted></_>
    <_>
      <rects>
        <_>
          2 18 1 6 -1.</_>
        <_>
          2 20 1 2 3.</_></rects>
      <tilted>0</tilted></_>
    <_>
      <rects>
        <_>
          3 1 18 1 -1.</_>
        <_>
          9 1 6 1 3.</_></rects>
      <tilted>0</tilted></_>
    <_>
      <rects>
        <_>
          3 2 18 21 -1.</_>
        <_>
          9 2 6 21 3.</_></rects>
      <tilted>0</tilted></_>
    <_>
      <rects>
        <_>
          3 3 3 5 -1.</_>
        <_>
          4 3 1 5 3.</_></rects>
      <tilted>0</tilted></_>
    <_>
      <rects>
        <_>
          3 4 1 3 -1.</_>
        <_>
          3 5 1 1 3.</_></rects>
      <tilted>0</tilted></_>
    <_>
      <rects>
        <_>
          3 5 21 1 -1.</_>
        <_>
          10 5 7 1 3.</_></rects>
      <tilted>0</tilted></_>
    <_>
      <rects>
        <_>
          3 7 1 15 -1.</_>
        <_>
          3 12 1 5 3.</_></rects>
      <tilted>0</tilted></_>
    <_>
      <rects>
        <_>
          3 8 9 3 -1.</_>
        <_>
          6 8 3 3 3.</_></rects>
      <tilted>0</tilted></_>
    <_>
      <rects>
        <_>
          3 10 1 3 -1.</_>
        <_>
          3 11 1 1 3.</_></rects>
      <tilted>0</tilted></_>
    <_>
      <rects>
        <_>
          3 10 20 13 -1.</_>
        <_>
          13 10 10 13 2.</_></rects>
      <tilted>0</tilted></_>
    <_>
      <rects>
        <_>
          3 11 6 13 -1.</_>
        <_>
          5 11 2 13 3.</_></rects>
      <tilted>0</tilted></_>
    <_>
      <rects>
        <_>
          3 11 9 1 -1.</_>
        <_>
          6 11 3 1 3.</_></rects>
      <tilted>0</tilted></_>
    <_>
      <rects>
        <_>
          3 11 9 3 -1.</_>
        <_>
          3 12 9 1 3.</_></rects>
      <tilted>0</tilted></_>
    <_>
      <rects>
        <_>
          3 18 9 4 -1.</_>
        <_>
          6 18 3 4 3.</_></rects>
      <tilted>0</tilted></_>
    <_>
      <rects>
        <_>
          4 4 6 1 -1.</_>
        <_>
          6 4 2 1 3.</_></rects>
      <tilted>0</tilted></_>
    <_>
      <rects>
        <_>
          4 5 6 8 -1.</_>
        <_>
          4 5 3 4 2.</_>
        <_>
          7 9 3 4 2.</_></rects>
      <tilted>0</tilted></_>
    <_>
      <rects>
        <_>
          4 6 3 3 -1.</_>
        <_>
          5 6 1 3 3.</_></rects>
      <tilted>0</tilted></_>
    <_>
      <rects>
        <_>
          4 6 4 6 -1.</_>
        <_>
          6 6 2 6 2.</_></rects>
      <tilted>0</tilted></_>
    <_>
      <rects>
        <_>
          4 7 2 8 -1.</_>
        <_>
          4 7 1 4 2.</_>
        <_>
          5 11 1 4 2.</_></rects>
      <tilted>0</tilted></_>
    <_>
      <rects>
        <_>
          4 12 1 6 -1.</_>
        <_>
          4 14 1 2 3.</_></rects>
      <tilted>0</tilted></_>
    <_>
      <rects>
        <_>
          4 13 12 2 -1.</_>
        <_>
          8 13 4 2 3.</_></rects>
      <tilted>0</tilted></_>
    <_>
      <rects>
        <_>
          4 13 12 2 -1.</_>
        <_>
          4 13 6 1 2.</_>
        <_>
          10 14 6 1 2.</_></rects>
      <tilted>0</tilted></_>
    <_>
      <rects>
        <_>
          4 18 3 2 -1.</_>
        <_>
          5 18 1 2 3.</_></rects>
      <tilted>0</tilted></_>
    <_>
      <rects>
        <_>
          4 18 6 2 -1.</_>
        <_>
          6 18 2 2 3.</_></rects>
      <tilted>0</tilted></_>
    <_>
      <rects>
        <_>
          4 20 3 3 -1.</_>
        <_>
          5 20 1 3 3.</_></rects>
      <tilted>0</tilted></_>
    <_>
      <rects>
        <_>
          5 1 6 2 -1.</_>
        <_>
          5 1 3 1 2.</_>
        <_>
          8 2 3 1 2.</_></rects>
      <tilted>0</tilted></_>
    <_>
      <rects>
        <_>
          5 1 4 4 -1.</_>
        <_>
          5 3 4 2 2.</_></rects>
      <tilted>0</tilted></_>
    <_>
      <rects>
        <_>
          5 10 9 10 -1.</_>
        <_>
          5 15 9 5 2.</_></rects>
      <tilted>0</tilted></_>
    <_>
      <rects>
        <_>
          5 11 6 4 -1.</_>
        <_>
          7 11 2 4 3.</_></rects>
      <tilted>0</tilted></_>
    <_>
      <rects>
        <_>
          5 15 2 3 -1.</_>
        <_>
          5 16 2 1 3.</_></rects>
      <tilted>0</tilted></_>
    <_>
      <rects>
        <_>
          5 16 2 2 -1.</_>
        <_>
          5 16 1 1 2.</_>
        <_>
          6 17 1 1 2.</_></rects>
      <tilted>0</tilted></_>
    <_>
      <rects>
        <_>
          5 22 12 2 -1.</_>
        <_>
          9 22 4 2 3.</_></rects>
      <tilted>0</tilted></_>
    <_>
      <rects>
        <_>
          6 0 2 5 -1.</_>
        <_>
          7 0 1 5 2.</_></rects>
      <tilted>0</tilted></_>
    <_>
      <rects>
        <_>
          6 1 2 3 -1.</_>
        <_>
          7 1 1 3 2.</_></rects>
      <tilted>0</tilted></_>
    <_>
      <rects>
        <_>
          6 1 4 3 -1.</_>
        <_>
          8 1 2 3 2.</_></rects>
      <tilted>0</tilted></_>
    <_>
      <rects>
        <_>
          6 2 8 16 -1.</_>
        <_>
          6 10 8 8 2.</_></rects>
      <tilted>0</tilted></_>
    <_>
      <rects>
        <_>
          6 8 6 8 -1.</_>
        <_>
          6 12 6 4 2.</_></rects>
      <tilted>0</tilted></_>
    <_>
      <rects>
        <_>
          6 9 6 2 -1.</_>
        <_>
          8 9 2 2 3.</_></rects>
      <tilted>0</tilted></_>
    <_>
      <rects>
        <_>
          6 10 8 6 -1.</_>
        <_>
          6 10 4 3 2.</_>
        <_>
          10 13 4 3 2.</_></rects>
      <tilted>0</tilted></_>
    <_>
      <rects>
        <_>
          6 10 18 6 -1.</_>
        <_>
          6 10 9 3 2.</_>
        <_>
          15 13 9 3 2.</_></rects>
      <tilted>0</tilted></_>
    <_>
      <rects>
        <_>
          6 12 1 3 -1.</_>
        <_>
          6 13 1 1 3.</_></rects>
      <tilted>0</tilted></_>
    <_>
      <rects>
        <_>
          6 13 9 1 -1.</_>
        <_>
          9 13 3 1 3.</_></rects>
      <tilted>0</tilted></_>
    <_>
      <rects>
        <_>
          6 15 9 1 -1.</_>
        <_>
          9 15 3 1 3.</_></rects>
      <tilted>0</tilted></_>
    <_>
      <rects>
        <_>
          6 23 3 1 -1.</_>
        <_>
          7 23 1 1 3.</_></rects>
      <tilted>0</tilted></_>
    <_>
      <rects>
        <_>
          7 0 4 3 -1.</_>
        <_>
          7 1 4 1 3.</_></rects>
      <tilted>0</tilted></_>
    <_>
      <rects>
        <_>
          7 4 3 1 -1.</_>
        <_>
          8 4 1 1 3.</_></rects>
      <tilted>0</tilted></_>
    <_>
      <rects>
        <_>
          7 4 6 3 -1.</_>
        <_>
          9 4 2 3 3.</_></rects>
      <tilted>0</tilted></_>
    <_>
      <rects>
        <_>
          7 6 5 15 -1.</_>
        <_>
          7 11 5 5 3.</_></rects>
      <tilted>0</tilted></_>
    <_>
      <rects>
        <_>
          7 7 2 12 -1.</_>
        <_>
          7 13 2 6 2.</_></rects>
      <tilted>0</tilted></_>
    <_>
      <rects>
        <_>
          7 8 12 6 -1.</_>
        <_>
          7 8 6 3 2.</_>
        <_>
          13 11 6 3 2.</_></rects>
      <tilted>0</tilted></_>
    <_>
      <rects>
        <_>
          7 10 4 3 -1.</_>
        <_>
          9 10 2 3 2.</_></rects>
      <tilted>0</tilted></_>
    <_>
      <rects>
        <_>
          7 10 12 8 -1.</_>
        <_>
          7 10 6 4 2.</_>
        <_>
          13 14 6 4 2.</_></rects>
      <tilted>0</tilted></_>
    <_>
      <rects>
        <_>
          7 11 14 3 -1.</_>
        <_>
          14 11 7 3 2.</_></rects>
      <tilted>0</tilted></_>
    <_>
      <rects>
        <_>
          7 12 4 10 -1.</_>
        <_>
          7 12 2 5 2.</_>
        <_>
          9 17 2 5 2.</_></rects>
      <tilted>0</tilted></_>
    <_>
      <rects>
        <_>
          7 13 8 2 -1.</_>
        <_>
          7 13 4 1 2.</_>
        <_>
          11 14 4 1 2.</_></rects>
      <tilted>0</tilted></_>
    <_>
      <rects>
        <_>
          7 14 6 4 -1.</_>
        <_>
          7 14 3 2 2.</_>
        <_>
          10 16 3 2 2.</_></rects>
      <tilted>0</tilted></_>
    <_>
      <rects>
        <_>
          7 18 4 4 -1.</_>
        <_>
          7 20 4 2 2.</_></rects>
      <tilted>0</tilted></_>
    <_>
      <rects>
        <_>
          8 0 3 6 -1.</_>
        <_>
          9 0 1 6 3.</_></rects>
      <tilted>0</tilted></_>
    <_>
      <rects>
        <_>
          8 3 3 2 -1.</_>
        <_>
          9 3 1 2 3.</_></rects>
      <tilted>0</tilted></_>
    <_>
      <rects>
        <_>
          8 6 1 3 -1.</_>
        <_>
          8 7 1 1 3.</_></rects>
      <tilted>0</tilted></_>
    <_>
      <rects>
        <_>
          8 6 6 1 -1.</_>
        <_>
          10 6 2 1 3.</_></rects>
      <tilted>0</tilted></_>
    <_>
      <rects>
        <_>
          8 6 3 12 -1.</_>
        <_>
          8 10 3 4 3.</_></rects>
      <tilted>0</tilted></_>
    <_>
      <rects>
        <_>
          8 7 16 3 -1.</_>
        <_>
          8 8 16 1 3.</_></rects>
      <tilted>0</tilted></_>
    <_>
      <rects>
        <_>
          8 8 14 10 -1.</_>
        <_>
          8 8 7 5 2.</_>
        <_>
          15 13 7 5 2.</_></rects>
      <tilted>0</tilted></_>
    <_>
      <rects>
        <_>
          8 11 4 4 -1.</_>
        <_>
          8 11 2 2 2.</_>
        <_>
          10 13 2 2 2.</_></rects>
      <tilted>0</tilted></_>
    <_>
      <rects>
        <_>
          8 18 15 1 -1.</_>
        <_>
          13 18 5 1 3.</_></rects>
      <tilted>0</tilted></_>
    <_>
      <rects>
        <_>
          8 19 12 2 -1.</_>
        <_>
          12 19 4 2 3.</_></rects>
      <tilted>0</tilted></_>
    <_>
      <rects>
        <_>
          9 1 4 6 -1.</_>
        <_>
          9 3 4 2 3.</_></rects>
      <tilted>0</tilted></_>
    <_>
      <rects>
        <_>
          9 2 2 22 -1.</_>
        <_>
          9 2 1 11 2.</_>
        <_>
          10 13 1 11 2.</_></rects>
      <tilted>0</tilted></_>
    <_>
      <rects>
        <_>
          9 5 1 12 -1.</_>
        <_>
          9 9 1 4 3.</_></rects>
      <tilted>0</tilted></_>
    <_>
      <rects>
        <_>
          9 8 9 1 -1.</_>
        <_>
          12 8 3 1 3.</_></rects>
      <tilted>0</tilted></_>
    <_>
      <rects>
        <_>
          9 9 3 2 -1.</_>
        <_>
          10 9 1 2 3.</_></rects>
      <tilted>0</tilted></_>
    <_>
      <rects>
        <_>
          9 10 4 4 -1.</_>
        <_>
          9 10 2 2 2.</_>
        <_>
          11 12 2 2 2.</_></rects>
      <tilted>0</tilted></_>
    <_>
      <rects>
        <_>
          9 11 6 1 -1.</_>
        <_>
          11 11 2 1 3.</_></rects>
      <tilted>0</tilted></_>
    <_>
      <rects>
        <_>
          9 11 4 8 -1.</_>
        <_>
          9 15 4 4 2.</_></rects>
      <tilted>0</tilted></_>
    <_>
      <rects>
        <_>
          9 11 8 8 -1.</_>
        <_>
          13 11 4 8 2.</_></rects>
      <tilted>0</tilted></_>
    <_>
      <rects>
        <_>
          9 12 3 5 -1.</_>
        <_>
          10 12 1 5 3.</_></rects>
      <tilted>0</tilted></_>
    <_>
      <rects>
        <_>
          9 12 2 9 -1.</_>
        <_>
          10 12 1 9 2.</_></rects>
      <tilted>0</tilted></_>
    <_>
      <rects>
        <_>
          9 16 3 5 -1.</_>
        <_>
          10 16 1 5 3.</_></rects>
      <tilted>0</tilted></_>
    <_>
      <rects>
        <_>
          9 17 3 6 -1.</_>
        <_>
          10 17 1 6 3.</_></rects>
      <tilted>0</tilted></_>
    <_>
      <rects>
        <_>
          9 20 4 4 -1.</_>
        <_>
          11 20 2 4 2.</_></rects>
      <tilted>0</tilted></_>
    <_>
      <rects>
        <_>
          10 1 6 3 -1.</_>
        <_>
          12 1 2 3 3.</_></rects>
      <tilted>0</tilted></_>
    <_>
      <rects>
        <_>
          10 3 3 2 -1.</_>
        <_>
          11 3 1 2 3.</_></rects>
      <tilted>0</tilted></_>
    <_>
      <rects>
        <_>
          10 5 3 1 -1.</_>
        <_>
          11 5 1 1 3.</_></rects>
      <tilted>0</tilted></_>
    <_>
      <rects>
        <_>
          10 7 14 16 -1.</_>
        <_>
          10 7 7 8 2.</_>
        <_>
          17 15 7 8 2.</_></rects>
      <tilted>0</tilted></_>
    <_>
      <rects>
        <_>
          10 9 2 4 -1.</_>
        <_>
          10 9 1 2 2.</_>
        <_>
          11 11 1 2 2.</_></rects>
      <tilted>0</tilted></_>
    <_>
      <rects>
        <_>
          10 10 3 6 -1.</_>
        <_>
          10 12 3 2 3.</_></rects>
      <tilted>0</tilted></_>
    <_>
      <rects>
        <_>
          10 10 3 9 -1.</_>
        <_>
          10 13 3 3 3.</_></rects>
      <tilted>0</tilted></_>
    <_>
      <rects>
        <_>
          10 10 7 3 -1.</_>
        <_>
          10 11 7 1 3.</_></rects>
      <tilted>0</tilted></_>
    <_>
      <rects>
        <_>
          10 11 2 2 -1.</_>
        <_>
          10 11 1 1 2.</_>
        <_>
          11 12 1 1 2.</_></rects>
      <tilted>0</tilted></_>
    <_>
      <rects>
        <_>
          10 11 5 3 -1.</_>
        <_>
          10 12 5 1 3.</_></rects>
      <tilted>0</tilted></_>
    <_>
      <rects>
        <_>
          10 13 3 3 -1.</_>
        <_>
          11 13 1 3 3.</_></rects>
      <tilted>0</tilted></_>
    <_>
      <rects>
        <_>
          10 13 6 2 -1.</_>
        <_>
          12 13 2 2 3.</_></rects>
      <tilted>0</tilted></_>
    <_>
      <rects>
        <_>
          10 13 4 3 -1.</_>
        <_>
          10 14 4 1 3.</_></rects>
      <tilted>0</tilted></_>
    <_>
      <rects>
        <_>
          10 13 7 6 -1.</_>
        <_>
          10 15 7 2 3.</_></rects>
      <tilted>0</tilted></_>
    <_>
      <rects>
        <_>
          10 13 10 4 -1.</_>
        <_>
          10 15 10 2 2.</_></rects>
      <tilted>0</tilted></_>
    <_>
      <rects>
        <_>
          10 14 12 10 -1.</_>
        <_>
          14 14 4 10 3.</_></rects>
      <tilted>0</tilted></_>
    <_>
      <rects>
        <_>
          10 15 6 1 -1.</_>
        <_>
          12 15 2 1 3.</_></rects>
      <tilted>0</tilted></_>
    <_>
      <rects>
        <_>
          10 18 2 2 -1.</_>
        <_>
          10 19 2 1 2.</_></rects>
      <tilted>0</tilted></_>
    <_>
      <rects>
        <_>
          11 0 6 1 -1.</_>
        <_>
          13 0 2 1 3.</_></rects>
      <tilted>0</tilted></_>
    <_>
      <rects>
        <_>
          11 7 4 3 -1.</_>
        <_>
          11 8 4 1 3.</_></rects>
      <tilted>0</tilted></_>
    <_>
      <rects>
        <_>
          11 9 2 3 -1.</_>
        <_>
          11 10 2 1 3.</_></rects>
      <tilted>0</tilted></_>
    <_>
      <rects>
        <_>
          11 12 7 3 -1.</_>
        <_>
          11 13 7 1 3.</_></rects>
      <tilted>0</tilted></_>
    <_>
      <rects>
        <_>
          11 13 3 3 -1.</_>
        <_>
          11 14 3 1 3.</_></rects>
      <tilted>0</tilted></_>
    <_>
      <rects>
        <_>
          11 18 3 1 -1.</_>
        <_>
          12 18 1 1 3.</_></rects>
      <tilted>0</tilted></_>
    <_>
      <rects>
        <_>
          11 20 9 4 -1.</_>
        <_>
          14 20 3 4 3.</_></rects>
      <tilted>0</tilted></_>
    <_>
      <rects>
        <_>
          12 0 2 18 -1.</_>
        <_>
          12 0 1 9 2.</_>
        <_>
          13 9 1 9 2.</_></rects>
      <tilted>0</tilted></_>
    <_>
      <rects>
        <_>
          12 1 3 3 -1.</_>
        <_>
          12 2 3 1 3.</_></rects>
      <tilted>0</tilted></_>
    <_>
      <rects>
        <_>
          12 4 6 5 -1.</_>
        <_>
          14 4 2 5 3.</_></rects>
      <tilted>0</tilted></_>
    <_>
      <rects>
        <_>
          12 8 1 6 -1.</_>
        <_>
          12 10 1 2 3.</_></rects>
      <tilted>0</tilted></_>
    <_>
      <rects>
        <_>
          12 9 6 4 -1.</_>
        <_>
          14 9 2 4 3.</_></rects>
      <tilted>0</tilted></_>
    <_>
      <rects>
        <_>
          12 12 7 2 -1.</_>
        <_>
          12 13 7 1 2.</_></rects>
      <tilted>0</tilted></_>
    <_>
      <rects>
        <_>
          12 13 2 6 -1.</_>
        <_>
          12 13 1 3 2.</_>
        <_>
          13 16 1 3 2.</_></rects>
      <tilted>0</tilted></_>
    <_>
      <rects>
        <_>
          13 1 6 3 -1.</_>
        <_>
          15 1 2 3 3.</_></rects>
      <tilted>0</tilted></_>
    <_>
      <rects>
        <_>
          13 7 5 14 -1.</_>
        <_>
          13 14 5 7 2.</_></rects>
      <tilted>0</tilted></_>
    <_>
      <rects>
        <_>
          13 8 2 6 -1.</_>
        <_>
          13 10 2 2 3.</_></rects>
      <tilted>0</tilted></_>
    <_>
      <rects>
        <_>
          13 18 9 1 -1.</_>
        <_>
          16 18 3 1 3.</_></rects>
      <tilted>0</tilted></_>
    <_>
      <rects>
        <_>
          13 19 9 2 -1.</_>
        <_>
          16 19 3 2 3.</_></rects>
      <tilted>0</tilted></_>
    <_>
      <rects>
        <_>
          13 21 6 2 -1.</_>
        <_>
          15 21 2 2 3.</_></rects>
      <tilted>0</tilted></_>
    <_>
      <rects>
        <_>
          13 22 7 2 -1.</_>
        <_>
          13 23 7 1 2.</_></rects>
      <tilted>0</tilted></_>
    <_>
      <rects>
        <_>
          14 0 9 6 -1.</_>
        <_>
          14 2 9 2 3.</_></rects>
      <tilted>0</tilted></_>
    <_>
      <rects>
        <_>
          14 5 4 2 -1.</_>
        <_>
          14 6 4 1 2.</_></rects>
      <tilted>0</tilted></_>
    <_>
      <rects>
        <_>
          14 6 1 9 -1.</_>
        <_>
          14 9 1 3 3.</_></rects>
      <tilted>0</tilted></_>
    <_>
      <rects>
        <_>
          14 8 6 10 -1.</_>
        <_>
          16 8 2 10 3.</_></rects>
      <tilted>0</tilted></_>
    <_>
      <rects>
        <_>
          14 14 2 4 -1.</_>
        <_>
          14 14 1 2 2.</_>
        <_>
          15 16 1 2 2.</_></rects>
      <tilted>0</tilted></_>
    <_>
      <rects>
        <_>
          14 14 5 2 -1.</_>
        <_>
          14 15 5 1 2.</_></rects>
      <tilted>0</tilted></_>
    <_>
      <rects>
        <_>
          14 15 6 4 -1.</_>
        <_>
          16 15 2 4 3.</_></rects>
      <tilted>0</tilted></_>
    <_>
      <rects>
        <_>
          14 17 2 6 -1.</_>
        <_>
          14 19 2 2 3.</_></rects>
      <tilted>0</tilted></_>
    <_>
      <rects>
        <_>
          14 18 3 3 -1.</_>
        <_>
          14 19 3 1 3.</_></rects>
      <tilted>0</tilted></_>
    <_>
      <rects>
        <_>
          15 5 1 15 -1.</_>
        <_>
          15 10 1 5 3.</_></rects>
      <tilted>0</tilted></_>
    <_>
      <rects>
        <_>
          15 7 1 12 -1.</_>
        <_>
          15 11 1 4 3.</_></rects>
      <tilted>0</tilted></_>
    <_>
      <rects>
        <_>
          15 9 2 3 -1.</_>
        <_>
          15 10 2 1 3.</_></rects>
      <tilted>0</tilted></_>
    <_>
      <rects>
        <_>
          15 9 5 8 -1.</_>
        <_>
          15 13 5 4 2.</_></rects>
      <tilted>0</tilted></_>
    <_>
      <rects>
        <_>
          15 17 3 6 -1.</_>
        <_>
          15 19 3 2 3.</_></rects>
      <tilted>0</tilted></_>
    <_>
      <rects>
        <_>
          15 21 3 3 -1.</_>
        <_>
          16 21 1 3 3.</_></rects>
      <tilted>0</tilted></_>
    <_>
      <rects>
        <_>
          16 1 8 10 -1.</_>
        <_>
          16 6 8 5 2.</_></rects>
      <tilted>0</tilted></_>
    <_>
      <rects>
        <_>
          16 2 1 15 -1.</_>
        <_>
          16 7 1 5 3.</_></rects>
      <tilted>0</tilted></_>
    <_>
      <rects>
        <_>
          16 5 2 6 -1.</_>
        <_>
          17 5 1 6 2.</_></rects>
      <tilted>0</tilted></_>
    <_>
      <rects>
        <_>
          16 14 4 9 -1.</_>
        <_>
          18 14 2 9 2.</_></rects>
      <tilted>0</tilted></_>
    <_>
      <rects>
        <_>
          16 18 2 4 -1.</_>
        <_>
          16 18 1 2 2.</_>
        <_>
          17 20 1 2 2.</_></rects>
      <tilted>0</tilted></_>
    <_>
      <rects>
        <_>
          16 21 3 3 -1.</_>
        <_>
          16 22 3 1 3.</_></rects>
      <tilted>0</tilted></_>
    <_>
      <rects>
        <_>
          17 1 6 4 -1.</_>
        <_>
          17 3 6 2 2.</_></rects>
      <tilted>0</tilted></_>
    <_>
      <rects>
        <_>
          17 2 1 3 -1.</_>
        <_>
          17 3 1 1 3.</_></rects>
      <tilted>0</tilted></_>
    <_>
      <rects>
        <_>
          17 7 3 3 -1.</_>
        <_>
          17 8 3 1 3.</_></rects>
      <tilted>0</tilted></_>
    <_>
      <rects>
        <_>
          17 8 1 4 -1.</_>
        <_>
          17 10 1 2 2.</_></rects>
      <tilted>0</tilted></_>
    <_>
      <rects>
        <_>
          17 10 2 4 -1.</_>
        <_>
          18 10 1 4 2.</_></rects>
      <tilted>0</tilted></_>
    <_>
      <rects>
        <_>
          17 16 2 3 -1.</_>
        <_>
          17 17 2 1 3.</_></rects>
      <tilted>0</tilted></_>
    <_>
      <rects>
        <_>
          18 2 1 3 -1.</_>
        <_>
          18 3 1 1 3.</_></rects>
      <tilted>0</tilted></_>
    <_>
      <rects>
        <_>
          18 3 3 6 -1.</_>
        <_>
          18 5 3 2 3.</_></rects>
      <tilted>0</tilted></_>
    <_>
      <rects>
        <_>
          18 4 2 6 -1.</_>
        <_>
          18 4 1 3 2.</_>
        <_>
          19 7 1 3 2.</_></rects>
      <tilted>0</tilted></_>
    <_>
      <rects>
        <_>
          18 10 2 4 -1.</_>
        <_>
          18 12 2 2 2.</_></rects>
      <tilted>0</tilted></_>
    <_>
      <rects>
        <_>
          18 11 2 4 -1.</_>
        <_>
          18 13 2 2 2.</_></rects>
      <tilted>0</tilted></_>
    <_>
      <rects>
        <_>
          18 12 2 10 -1.</_>
        <_>
          19 12 1 10 2.</_></rects>
      <tilted>0</tilted></_>
    <_>
      <rects>
        <_>
          18 13 1 2 -1.</_>
        <_>
          18 14 1 1 2.</_></rects>
      <tilted>0</tilted></_>
    <_>
      <rects>
        <_>
          19 8 3 4 -1.</_>
        <_>
          19 10 3 2 2.</_></rects>
      <tilted>0</tilted></_>
    <_>
      <rects>
        <_>
          20 5 2 5 -1.</_>
        <_>
          21 5 1 5 2.</_></rects>
      <tilted>0</tilted></_>
    <_>
      <rects>
        <_>
          20 6 3 4 -1.</_>
        <_>
          21 6 1 4 3.</_></rects>
      <tilted>0</tilted></_>
    <_>
      <rects>
        <_>
          20 21 3 1 -1.</_>
        <_>
          21 21 1 1 3.</_></rects>
      <tilted>0</tilted></_>
    <_>
      <rects>
        <_>
          21 1 3 9 -1.</_>
        <_>
          22 1 1 9 3.</_></rects>
      <tilted>0</tilted></_>
    <_>
      <rects>
        <_>
          21 5 2 8 -1.</_>
        <_>
          21 5 1 4 2.</_>
        <_>
          22 9 1 4 2.</_></rects>
      <tilted>0</tilted></_>
    <_>
      <rects>
        <_>
          22 11 1 2 -1.</_>
        <_>
          22 12 1 1 2.</_></rects>
      <tilted>0</tilted></_>
    <_>
      <rects>
        <_>
          22 13 2 6 -1.</_>
        <_>
          22 16 2 3 2.</_></rects>
      <tilted>0</tilted></_>
    <_>
      <rects>
        <_>
          22 18 2 4 -1.</_>
        <_>
          22 20 2 2 2.</_></rects>
      <tilted>0</tilted></_>
    <_>
      <rects>
        <_>
          23 16 1 6 -1.</_>
        <_>
          23 18 1 2 3.</_></rects>
      <tilted>0</tilted></_></features></cascade>
</opencv_storage>
