<?xml version="1.0"?>
<opencv_storage>
<stage18>
  <maxWeakCount>10</maxWeakCount>
  <stageThreshold>-1.8104252815246582e+00</stageThreshold>
  <weakClassifiers>
    <_>
      <internalNodes>
        0 -1 53699 -4.4390045106410980e-02</internalNodes>
      <leafValues>
        1. -8.3992642164230347e-01</leafValues></_>
    <_>
      <internalNodes>
        0 -1 142340 1.5339625999331474e-02</internalNodes>
      <leafValues>
        -4.5882338285446167e-01 3.2593682408332825e-01</leafValues></_>
    <_>
      <internalNodes>
        0 -1 152918 -1.9012167467735708e-04</internalNodes>
      <leafValues>
        2.9274415969848633e-01 -2.5231984257698059e-01</leafValues></_>
    <_>
      <internalNodes>
        0 -1 93672 3.1328718177974224e-03</internalNodes>
      <leafValues>
        7.9010099172592163e-02 -9.3010485172271729e-01</leafValues></_>
    <_>
      <internalNodes>
        0 -1 133680 -6.2584499828517437e-03</internalNodes>
      <leafValues>
        -8.5045260190963745e-01 9.2481248080730438e-02</leafValues></_>
    <_>
      <internalNodes>
        0 -1 148035 1.3501310604624450e-04</internalNodes>
      <leafValues>
        -2.3063348233699799e-01 3.7809109687805176e-01</leafValues></_>
    <_>
      <internalNodes>
        0 -1 86969 -1.5668254345655441e-02</internalNodes>
      <leafValues>
        3.4483516216278076e-01 -2.7363365888595581e-01</leafValues></_>
    <_>
      <internalNodes>
        0 -1 159893 -8.4607664030045271e-04</internalNodes>
      <leafValues>
        -3.7645795941352844e-01 2.2817932069301605e-01</leafValues></_>
    <_>
      <internalNodes>
        0 -1 71629 8.5598947480320930e-03</internalNodes>
      <leafValues>
        1.0892325639724731e-01 -8.7655699253082275e-01</leafValues></_>
    <_>
      <internalNodes>
        0 -1 93731 2.1993820555508137e-03</internalNodes>
      <leafValues>
        -2.6776969432830811e-01 3.8728448748588562e-01</leafValues></_></weakClassifiers></stage18>
</opencv_storage>
