<?xml version="1.0"?>
<opencv_storage>
<stage4>
  <maxWeakCount>8</maxWeakCount>
  <stageThreshold>-1.6096619367599487e+00</stageThreshold>
  <weakClassifiers>
    <_>
      <internalNodes>
        0 -1 77474 -5.2713971585035324e-02</internalNodes>
      <leafValues>
        6.3636362552642822e-01 -8.4132844209671021e-01</leafValues></_>
    <_>
      <internalNodes>
        0 -1 118029 1.9191596657037735e-03</internalNodes>
      <leafValues>
        -5.6272882223129272e-01 8.5986159741878510e-02</leafValues></_>
    <_>
      <internalNodes>
        0 -1 40691 -1.7280543688684702e-03</internalNodes>
      <leafValues>
        -6.0521203279495239e-01 1.1592390388250351e-01</leafValues></_>
    <_>
      <internalNodes>
        0 -1 136881 -1.6335880383849144e-02</internalNodes>
      <leafValues>
        -8.2679480314254761e-01 9.5509268343448639e-02</leafValues></_>
    <_>
      <internalNodes>
        0 -1 112169 -5.6959828361868858e-04</internalNodes>
      <leafValues>
        4.3394511938095093e-01 -2.0233052968978882e-01</leafValues></_>
    <_>
      <internalNodes>
        0 -1 12263 2.9471204616129398e-03</internalNodes>
      <leafValues>
        1.1897362768650055e-01 -7.2705012559890747e-01</leafValues></_>
    <_>
      <internalNodes>
        0 -1 78708 1.5526304487138987e-03</internalNodes>
      <leafValues>
        -2.4252662062644958e-01 3.6255863308906555e-01</leafValues></_>
    <_>
      <internalNodes>
        0 -1 89851 4.5000361278653145e-03</internalNodes>
      <leafValues>
        1.0615438222885132e-01 -8.0149680376052856e-01</leafValues></_></weakClassifiers></stage4>
</opencv_storage>
