<?xml version="1.0"?>
<opencv_storage>
<cascade>
  <stageType>BOOST</stageType>
  <featureType>HAAR</featureType>
  <height>24</height>
  <width>24</width>
  <stageParams>
    <boostType>GAB</boostType>
    <minHitRate>9.9500000476837158e-01</minHitRate>
    <maxFalseAlarm>5.0000000000000000e-01</maxFalseAlarm>
    <weightTrimRate>9.4999999999999996e-01</weightTrimRate>
    <maxDepth>1</maxDepth>
    <maxWeakCount>100</maxWeakCount></stageParams>
  <featureParams>
    <maxCatCount>0</maxCatCount>
    <featSize>1</featSize>
    <mode>BASIC</mode></featureParams>
  <stageNum>14</stageNum>
  <stages>
    <!-- stage 0 -->
    <_>
      <maxWeakCount>5</maxWeakCount>
      <stageThreshold>-2.2404623031616211e+00</stageThreshold>
      <weakClassifiers>
        <_>
          <internalNodes>
            0 -1 48 -9.3058541417121887e-02</internalNodes>
          <leafValues>
            1. -9.0114068984985352e-01</leafValues></_>
        <_>
          <internalNodes>
            0 -1 35 2.3388251662254333e-02</internalNodes>
          <leafValues>
            -7.8871768712997437e-01 4.6129435300827026e-01</leafValues></_>
        <_>
          <internalNodes>
            0 -1 28 7.6497551053762436e-03</internalNodes>
          <leafValues>
            -6.4745026826858521e-01 3.3878302574157715e-01</leafValues></_>
        <_>
          <internalNodes>
            0 -1 13 -1.2650005519390106e-02</internalNodes>
          <leafValues>
            5.8063346147537231e-01 -4.1066724061965942e-01</leafValues></_>
        <_>
          <internalNodes>
            0 -1 85 -1.1024052277207375e-02</internalNodes>
          <leafValues>
            5.0751370191574097e-01 -5.1578110456466675e-01</leafValues></_></weakClassifiers></_>
    <!-- stage 1 -->
    <_>
      <maxWeakCount>7</maxWeakCount>
      <stageThreshold>-1.7962514162063599e+00</stageThreshold>
      <weakClassifiers>
        <_>
          <internalNodes>
            0 -1 51 -8.6954072117805481e-02</internalNodes>
          <leafValues>
            4.5454546809196472e-01 -8.9875835180282593e-01</leafValues></_>
        <_>
          <internalNodes>
            0 -1 29 -5.3407404571771622e-02</internalNodes>
          <leafValues>
            1.8269298970699310e-01 -6.9670861959457397e-01</leafValues></_>
        <_>
          <internalNodes>
            0 -1 22 3.3636447042226791e-02</internalNodes>
          <leafValues>
            -3.7374168634414673e-01 4.4604429602622986e-01</leafValues></_>
        <_>
          <internalNodes>
            0 -1 72 -3.8444809615612030e-02</internalNodes>
          <leafValues>
            7.2763186693191528e-01 -2.1892787516117096e-01</leafValues></_>
        <_>
          <internalNodes>
            0 -1 17 1.7438584472984076e-04</internalNodes>
          <leafValues>
            2.9283162951469421e-01 -5.8181786537170410e-01</leafValues></_>
        <_>
          <internalNodes>
            0 -1 6 -1.3660034537315369e-01</internalNodes>
          <leafValues>
            8.8344240188598633e-01 -1.8860563635826111e-01</leafValues></_>
        <_>
          <internalNodes>
            0 -1 11 7.9484016168862581e-05</internalNodes>
          <leafValues>
            -4.9725520610809326e-01 3.4252271056175232e-01</leafValues></_></weakClassifiers></_>
    <!-- stage 2 -->
    <_>
      <maxWeakCount>6</maxWeakCount>
      <stageThreshold>-1.6715170145034790e+00</stageThreshold>
      <weakClassifiers>
        <_>
          <internalNodes>
            0 -1 47 -9.2132046818733215e-02</internalNodes>
          <leafValues>
            4.7368422150611877e-01 -8.9523810148239136e-01</leafValues></_>
        <_>
          <internalNodes>
            0 -1 14 1.1048256605863571e-01</internalNodes>
          <leafValues>
            -6.7712181806564331e-01 2.6007393002510071e-01</leafValues></_>
        <_>
          <internalNodes>
            0 -1 5 -3.1316176056861877e-02</internalNodes>
          <leafValues>
            6.3329708576202393e-01 -3.8902115821838379e-01</leafValues></_>
        <_>
          <internalNodes>
            0 -1 41 -6.5451860427856445e-04</internalNodes>
          <leafValues>
            -5.6901800632476807e-01 2.4999310076236725e-01</leafValues></_>
        <_>
          <internalNodes>
            0 -1 3 -2.8640879318118095e-03</internalNodes>
          <leafValues>
            2.9398396611213684e-01 -4.3369776010513306e-01</leafValues></_>
        <_>
          <internalNodes>
            0 -1 81 1.0238625109195709e-02</internalNodes>
          <leafValues>
            -2.5411295890808105e-01 6.1617702245712280e-01</leafValues></_></weakClassifiers></_>
    <!-- stage 3 -->
    <_>
      <maxWeakCount>6</maxWeakCount>
      <stageThreshold>-1.7706998586654663e+00</stageThreshold>
      <weakClassifiers>
        <_>
          <internalNodes>
            0 -1 40 2.2671857476234436e-01</internalNodes>
          <leafValues>
            -8.8146752119064331e-01 1.</leafValues></_>
        <_>
          <internalNodes>
            0 -1 54 5.2880927920341492e-02</internalNodes>
          <leafValues>
            -6.3987481594085693e-01 1.7025129497051239e-01</leafValues></_>
        <_>
          <internalNodes>
            0 -1 2 -9.6807241439819336e-02</internalNodes>
          <leafValues>
            -7.0814931392669678e-01 1.4589442312717438e-01</leafValues></_>
        <_>
          <internalNodes>
            0 -1 92 -1.4851763844490051e-03</internalNodes>
          <leafValues>
            -8.9960843324661255e-01 1.3398243486881256e-01</leafValues></_>
        <_>
          <internalNodes>
            0 -1 50 5.9594865888357162e-04</internalNodes>
          <leafValues>
            1.4703632891178131e-01 -8.8121116161346436e-01</leafValues></_>
        <_>
          <internalNodes>
            0 -1 78 -1.4606727927457541e-04</internalNodes>
          <leafValues>
            -5.7702547311782837e-01 1.7777296900749207e-01</leafValues></_></weakClassifiers></_>
    <!-- stage 4 -->
    <_>
      <maxWeakCount>7</maxWeakCount>
      <stageThreshold>-1.5969727039337158e+00</stageThreshold>
      <weakClassifiers>
        <_>
          <internalNodes>
            0 -1 43 -4.0615558624267578e-02</internalNodes>
          <leafValues>
            5.5555558204650879e-01 -8.8301885128021240e-01</leafValues></_>
        <_>
          <internalNodes>
            0 -1 46 -6.1370834708213806e-02</internalNodes>
          <leafValues>
            5.2926641702651978e-01 -5.4975402355194092e-01</leafValues></_>
        <_>
          <internalNodes>
            0 -1 69 3.4554661251604557e-03</internalNodes>
          <leafValues>
            -4.2726045846939087e-01 2.7303054928779602e-01</leafValues></_>
        <_>
          <internalNodes>
            0 -1 58 -8.4990591858513653e-05</internalNodes>
          <leafValues>
            2.8348883986473083e-01 -4.6679168939590454e-01</leafValues></_>
        <_>
          <internalNodes>
            0 -1 91 4.7376661677844822e-04</internalNodes>
          <leafValues>
            -3.9432591199874878e-01 3.2237541675567627e-01</leafValues></_>
        <_>
          <internalNodes>
            0 -1 16 -1.0650414042174816e-03</internalNodes>
          <leafValues>
            -8.8509809970855713e-01 1.8210422992706299e-01</leafValues></_>
        <_>
          <internalNodes>
            0 -1 62 2.7121924795210361e-03</internalNodes>
          <leafValues>
            -4.7491836547851563e-01 2.7390596270561218e-01</leafValues></_></weakClassifiers></_>
    <!-- stage 5 -->
    <_>
      <maxWeakCount>8</maxWeakCount>
      <stageThreshold>-2.0154483318328857e+00</stageThreshold>
      <weakClassifiers>
        <_>
          <internalNodes>
            0 -1 25 3.1766906380653381e-02</internalNodes>
          <leafValues>
            -8.8647115230560303e-01 5.0000000000000000e-01</leafValues></_>
        <_>
          <internalNodes>
            0 -1 7 1.8851794302463531e-03</internalNodes>
          <leafValues>
            -6.8739128112792969e-01 -9.2105984687805176e-02</leafValues></_>
        <_>
          <internalNodes>
            0 -1 74 -1.2522373348474503e-02</internalNodes>
          <leafValues>
            5.3075492382049561e-01 -2.8756025433540344e-01</leafValues></_>
        <_>
          <internalNodes>
            0 -1 80 -7.5772176496684551e-03</internalNodes>
          <leafValues>
            -7.8624749183654785e-01 1.6064095497131348e-01</leafValues></_>
        <_>
          <internalNodes>
            0 -1 61 3.9329444989562035e-03</internalNodes>
          <leafValues>
            -2.4538278579711914e-01 4.8351737856864929e-01</leafValues></_>
        <_>
          <internalNodes>
            0 -1 76 -1.0485050734132528e-03</internalNodes>
          <leafValues>
            -5.4977446794509888e-01 2.2216446697711945e-01</leafValues></_>
        <_>
          <internalNodes>
            0 -1 66 1.9534997409209609e-04</internalNodes>
          <leafValues>
            -4.8316639661788940e-01 2.1365830302238464e-01</leafValues></_>
        <_>
          <internalNodes>
            0 -1 75 1.0871393897105008e-04</internalNodes>
          <leafValues>
            -4.0356710553169250e-01 2.8459528088569641e-01</leafValues></_></weakClassifiers></_>
    <!-- stage 6 -->
    <_>
      <maxWeakCount>7</maxWeakCount>
      <stageThreshold>-1.6723242998123169e+00</stageThreshold>
      <weakClassifiers>
        <_>
          <internalNodes>
            0 -1 33 4.6492300927639008e-02</internalNodes>
          <leafValues>
            -8.8135594129562378e-01 7.1428573131561279e-01</leafValues></_>
        <_>
          <internalNodes>
            0 -1 34 2.8997462242841721e-02</internalNodes>
          <leafValues>
            -6.1625707149505615e-01 3.2010469585657120e-02</leafValues></_>
        <_>
          <internalNodes>
            0 -1 93 -2.3930415045469999e-03</internalNodes>
          <leafValues>
            -9.2597436904907227e-01 5.6504704058170319e-02</leafValues></_>
        <_>
          <internalNodes>
            0 -1 79 2.1857540123164654e-03</internalNodes>
          <leafValues>
            -2.5567969679832458e-01 4.5403394103050232e-01</leafValues></_>
        <_>
          <internalNodes>
            0 -1 36 7.5606137514114380e-02</internalNodes>
          <leafValues>
            -2.3431056737899780e-01 4.8899590969085693e-01</leafValues></_>
        <_>
          <internalNodes>
            0 -1 39 1.0943714529275894e-02</internalNodes>
          <leafValues>
            -2.4896492063999176e-01 5.1076686382293701e-01</leafValues></_>
        <_>
          <internalNodes>
            0 -1 38 -4.0619848296046257e-03</internalNodes>
          <leafValues>
            -8.7078535556793213e-01 1.3223706185817719e-01</leafValues></_></weakClassifiers></_>
    <!-- stage 7 -->
    <_>
      <maxWeakCount>6</maxWeakCount>
      <stageThreshold>-1.4361886978149414e+00</stageThreshold>
      <weakClassifiers>
        <_>
          <internalNodes>
            0 -1 63 -9.7440227866172791e-02</internalNodes>
          <leafValues>
            1. -8.7969923019409180e-01</leafValues></_>
        <_>
          <internalNodes>
            0 -1 9 -1.1306756176054478e-02</internalNodes>
          <leafValues>
            2.9220265150070190e-01 -5.8436006307601929e-01</leafValues></_>
        <_>
          <internalNodes>
            0 -1 45 1.4150926843285561e-02</internalNodes>
          <leafValues>
            1.0569853335618973e-01 -6.6287291049957275e-01</leafValues></_>
        <_>
          <internalNodes>
            0 -1 52 2.5597428902983665e-03</internalNodes>
          <leafValues>
            1.0935648530721664e-01 -8.3806777000427246e-01</leafValues></_>
        <_>
          <internalNodes>
            0 -1 60 2.1389871835708618e-04</internalNodes>
          <leafValues>
            -3.3631300926208496e-01 3.2533159852027893e-01</leafValues></_>
        <_>
          <internalNodes>
            0 -1 56 8.5002669948153198e-05</internalNodes>
          <leafValues>
            -4.3079173564910889e-01 2.5605550408363342e-01</leafValues></_></weakClassifiers></_>
    <!-- stage 8 -->
    <_>
      <maxWeakCount>8</maxWeakCount>
      <stageThreshold>-1.6535619497299194e+00</stageThreshold>
      <weakClassifiers>
        <_>
          <internalNodes>
            0 -1 67 -5.4544456303119659e-02</internalNodes>
          <leafValues>
            1. -8.7969923019409180e-01</leafValues></_>
        <_>
          <internalNodes>
            0 -1 49 -1.8567979335784912e-02</internalNodes>
          <leafValues>
            3.0407002568244934e-01 -5.7172441482543945e-01</leafValues></_>
        <_>
          <internalNodes>
            0 -1 15 1.0623938590288162e-01</internalNodes>
          <leafValues>
            -2.9637363553047180e-01 4.2727082967758179e-01</leafValues></_>
        <_>
          <internalNodes>
            0 -1 23 -4.6895444393157959e-03</internalNodes>
          <leafValues>
            4.0643465518951416e-01 -3.2715153694152832e-01</leafValues></_>
        <_>
          <internalNodes>
            0 -1 12 9.8870345391333103e-04</internalNodes>
          <leafValues>
            1.4531587064266205e-01 -7.8091549873352051e-01</leafValues></_>
        <_>
          <internalNodes>
            0 -1 21 1.6303934156894684e-02</internalNodes>
          <leafValues>
            -1.7442418634891510e-01 6.0262829065322876e-01</leafValues></_>
        <_>
          <internalNodes>
            0 -1 8 -1.7190817743539810e-03</internalNodes>
          <leafValues>
            4.2478302121162415e-01 -2.4037873744964600e-01</leafValues></_>
        <_>
          <internalNodes>
            0 -1 27 4.4944444671273232e-03</internalNodes>
          <leafValues>
            1.0646662116050720e-01 -9.3407845497131348e-01</leafValues></_></weakClassifiers></_>
    <!-- stage 9 -->
    <_>
      <maxWeakCount>7</maxWeakCount>
      <stageThreshold>-1.7842506170272827e+00</stageThreshold>
      <weakClassifiers>
        <_>
          <internalNodes>
            0 -1 31 2.6482993364334106e-01</internalNodes>
          <leafValues>
            -8.7969923019409180e-01 1.</leafValues></_>
        <_>
          <internalNodes>
            0 -1 57 1.0278151603415608e-03</internalNodes>
          <leafValues>
            -6.4836603403091431e-01 -1.3897925615310669e-01</leafValues></_>
        <_>
          <internalNodes>
            0 -1 82 7.9974345862865448e-04</internalNodes>
          <leafValues>
            8.7288640439510345e-02 -6.8446356058120728e-01</leafValues></_>
        <_>
          <internalNodes>
            0 -1 59 -3.4045274369418621e-03</internalNodes>
          <leafValues>
            -7.4029415845870972e-01 1.1567482352256775e-01</leafValues></_>
        <_>
          <internalNodes>
            0 -1 37 -1.5516317216679454e-04</internalNodes>
          <leafValues>
            3.2021152973175049e-01 -3.3234640955924988e-01</leafValues></_>
        <_>
          <internalNodes>
            0 -1 83 3.1503331847488880e-03</internalNodes>
          <leafValues>
            -2.7798053622245789e-01 4.0332412719726563e-01</leafValues></_>
        <_>
          <internalNodes>
            0 -1 98 -1.8738820217549801e-03</internalNodes>
          <leafValues>
            -6.9663953781127930e-01 1.5117819607257843e-01</leafValues></_></weakClassifiers></_>
    <!-- stage 10 -->
    <_>
      <maxWeakCount>8</maxWeakCount>
      <stageThreshold>-1.7912518978118896e+00</stageThreshold>
      <weakClassifiers>
        <_>
          <internalNodes>
            0 -1 77 -6.7753568291664124e-02</internalNodes>
          <leafValues>
            6.6666668653488159e-01 -8.7958610057830811e-01</leafValues></_>
        <_>
          <internalNodes>
            0 -1 26 1.9520642235875130e-03</internalNodes>
          <leafValues>
            -6.3967090845108032e-01 -9.8803810775279999e-02</leafValues></_>
        <_>
          <internalNodes>
            0 -1 32 1.4452466275542974e-03</internalNodes>
          <leafValues>
            -3.7946301698684692e-01 2.6119989156723022e-01</leafValues></_>
        <_>
          <internalNodes>
            0 -1 68 6.7721316590905190e-03</internalNodes>
          <leafValues>
            -2.8857234120368958e-01 4.3282619118690491e-01</leafValues></_>
        <_>
          <internalNodes>
            0 -1 70 3.5555418580770493e-03</internalNodes>
          <leafValues>
            -3.8338389992713928e-01 2.9936370253562927e-01</leafValues></_>
        <_>
          <internalNodes>
            0 -1 0 6.5852189436554909e-04</internalNodes>
          <leafValues>
            1.6253358125686646e-01 -8.1864714622497559e-01</leafValues></_>
        <_>
          <internalNodes>
            0 -1 42 -6.1456681578420103e-05</internalNodes>
          <leafValues>
            -4.9684309959411621e-01 1.7703622579574585e-01</leafValues></_>
        <_>
          <internalNodes>
            0 -1 99 -1.1047548614442348e-03</internalNodes>
          <leafValues>
            -6.0004490613937378e-01 1.9198609888553619e-01</leafValues></_></weakClassifiers></_>
    <!-- stage 11 -->
    <_>
      <maxWeakCount>8</maxWeakCount>
      <stageThreshold>-1.5550255775451660e+00</stageThreshold>
      <weakClassifiers>
        <_>
          <internalNodes>
            0 -1 30 -1.2265804409980774e-01</internalNodes>
          <leafValues>
            1. -8.7793427705764771e-01</leafValues></_>
        <_>
          <internalNodes>
            0 -1 94 -3.5791879054158926e-04</internalNodes>
          <leafValues>
            -7.4636071920394897e-02 -6.3738644123077393e-01</leafValues></_>
        <_>
          <internalNodes>
            0 -1 71 2.9031126759946346e-03</internalNodes>
          <leafValues>
            -2.7595236897468567e-01 3.7189960479736328e-01</leafValues></_>
        <_>
          <internalNodes>
            0 -1 65 1.2843881268054247e-03</internalNodes>
          <leafValues>
            -2.4082700908184052e-01 4.5538422465324402e-01</leafValues></_>
        <_>
          <internalNodes>
            0 -1 10 1.5444064512848854e-02</internalNodes>
          <leafValues>
            1.2869130074977875e-01 -8.8761591911315918e-01</leafValues></_>
        <_>
          <internalNodes>
            0 -1 4 2.7838982641696930e-03</internalNodes>
          <leafValues>
            -2.7937290072441101e-01 3.8029417395591736e-01</leafValues></_>
        <_>
          <internalNodes>
            0 -1 19 -5.6583657860755920e-03</internalNodes>
          <leafValues>
            3.9330169558525085e-01 -3.0897849798202515e-01</leafValues></_>
        <_>
          <internalNodes>
            0 -1 53 4.9147207755595446e-04</internalNodes>
          <leafValues>
            -2.7386772632598877e-01 4.4168645143508911e-01</leafValues></_></weakClassifiers></_>
    <!-- stage 12 -->
    <_>
      <maxWeakCount>8</maxWeakCount>
      <stageThreshold>-1.8579636812210083e+00</stageThreshold>
      <weakClassifiers>
        <_>
          <internalNodes>
            0 -1 95 -6.7560239695012569e-03</internalNodes>
          <leafValues>
            1. -8.7969923019409180e-01</leafValues></_>
        <_>
          <internalNodes>
            0 -1 18 1.1885727941989899e-01</internalNodes>
          <leafValues>
            -5.6627374887466431e-01 2.0281125605106354e-01</leafValues></_>
        <_>
          <internalNodes>
            0 -1 1 -7.0534748956561089e-03</internalNodes>
          <leafValues>
            -8.5281002521514893e-01 7.0613041520118713e-02</leafValues></_>
        <_>
          <internalNodes>
            0 -1 86 1.2563131749629974e-02</internalNodes>
          <leafValues>
            -2.6170897483825684e-01 3.8914740085601807e-01</leafValues></_>
        <_>
          <internalNodes>
            0 -1 55 -2.9791728593409061e-03</internalNodes>
          <leafValues>
            -7.7124875783920288e-01 1.7815309762954712e-01</leafValues></_>
        <_>
          <internalNodes>
            0 -1 89 -1.0174609720706940e-02</internalNodes>
          <leafValues>
            5.8733427524566650e-01 -2.0171922445297241e-01</leafValues></_>
        <_>
          <internalNodes>
            0 -1 96 1.0491036809980869e-03</internalNodes>
          <leafValues>
            1.5953730046749115e-01 -6.4339506626129150e-01</leafValues></_>
        <_>
          <internalNodes>
            0 -1 20 2.6126828743144870e-04</internalNodes>
          <leafValues>
            -3.5686591267585754e-01 2.9002928733825684e-01</leafValues></_></weakClassifiers></_>
    <!-- stage 13 -->
    <_>
      <maxWeakCount>9</maxWeakCount>
      <stageThreshold>-1.7300598621368408e+00</stageThreshold>
      <weakClassifiers>
        <_>
          <internalNodes>
            0 -1 44 2.7762109041213989e-01</internalNodes>
          <leafValues>
            -8.7793427705764771e-01 1.</leafValues></_>
        <_>
          <internalNodes>
            0 -1 73 -2.7680914849042892e-02</internalNodes>
          <leafValues>
            4.8642051219940186e-01 -5.2168428897857666e-01</leafValues></_>
        <_>
          <internalNodes>
            0 -1 24 -2.4314647540450096e-02</internalNodes>
          <leafValues>
            -7.2714513540267944e-01 8.3301998674869537e-02</leafValues></_>
        <_>
          <internalNodes>
            0 -1 84 4.5058704563416541e-04</internalNodes>
          <leafValues>
            -2.6944023370742798e-01 3.5415974259376526e-01</leafValues></_>
        <_>
          <internalNodes>
            0 -1 87 3.1807320192456245e-03</internalNodes>
          <leafValues>
            1.5556739270687103e-01 -9.6428436040878296e-01</leafValues></_>
        <_>
          <internalNodes>
            0 -1 88 -2.8853386174887419e-03</internalNodes>
          <leafValues>
            2.9680120944976807e-01 -3.0312225222587585e-01</leafValues></_>
        <_>
          <internalNodes>
            0 -1 90 8.6158246267586946e-04</internalNodes>
          <leafValues>
            -2.3100005090236664e-01 4.2831760644912720e-01</leafValues></_>
        <_>
          <internalNodes>
            0 -1 97 -1.1824747780337930e-03</internalNodes>
          <leafValues>
            -6.8827581405639648e-01 1.4874884486198425e-01</leafValues></_>
        <_>
          <internalNodes>
            0 -1 64 1.5538748353719711e-02</internalNodes>
          <leafValues>
            8.5502959787845612e-02 -1.</leafValues></_></weakClassifiers></_></stages>
  <features>
    <_>
      <rects>
        <_>
          0 0 1 2 -1.</_>
        <_>
          0 1 1 1 2.</_></rects>
      <tilted>0</tilted></_>
    <_>
      <rects>
        <_>
          0 0 3 4 -1.</_>
        <_>
          0 2 3 2 2.</_></rects>
      <tilted>0</tilted></_>
    <_>
      <rects>
        <_>
          0 0 18 24 -1.</_>
        <_>
          0 12 18 12 2.</_></rects>
      <tilted>0</tilted></_>
    <_>
      <rects>
        <_>
          0 1 3 10 -1.</_>
        <_>
          0 6 3 5 2.</_></rects>
      <tilted>0</tilted></_>
    <_>
      <rects>
        <_>
          0 1 21 3 -1.</_>
        <_>
          0 2 21 1 3.</_></rects>
      <tilted>0</tilted></_>
    <_>
      <rects>
        <_>
          0 4 10 4 -1.</_>
        <_>
          5 4 5 4 2.</_></rects>
      <tilted>0</tilted></_>
    <_>
      <rects>
        <_>
          0 4 24 4 -1.</_>
        <_>
          8 4 8 4 3.</_></rects>
      <tilted>0</tilted></_>
    <_>
      <rects>
        <_>
          0 6 4 6 -1.</_>
        <_>
          0 8 4 2 3.</_></rects>
      <tilted>0</tilted></_>
    <_>
      <rects>
        <_>
          0 8 2 5 -1.</_>
        <_>
          1 8 1 5 2.</_></rects>
      <tilted>0</tilted></_>
    <_>
      <rects>
        <_>
          0 8 6 2 -1.</_>
        <_>
          3 8 3 2 2.</_></rects>
      <tilted>0</tilted></_>
    <_>
      <rects>
        <_>
          0 12 8 6 -1.</_>
        <_>
          0 14 8 2 3.</_></rects>
      <tilted>0</tilted></_>
    <_>
      <rects>
        <_>
          0 18 2 4 -1.</_>
        <_>
          0 18 1 2 2.</_>
        <_>
          1 20 1 2 2.</_></rects>
      <tilted>0</tilted></_>
    <_>
      <rects>
        <_>
          1 1 4 1 -1.</_>
        <_>
          3 1 2 1 2.</_></rects>
      <tilted>0</tilted></_>
    <_>
      <rects>
        <_>
          1 3 9 6 -1.</_>
        <_>
          1 5 9 2 3.</_></rects>
      <tilted>0</tilted></_>
    <_>
      <rects>
        <_>
          1 7 21 9 -1.</_>
        <_>
          8 7 7 9 3.</_></rects>
      <tilted>0</tilted></_>
    <_>
      <rects>
        <_>
          1 9 12 13 -1.</_>
        <_>
          7 9 6 13 2.</_></rects>
      <tilted>0</tilted></_>
    <_>
      <rects>
        <_>
          1 18 1 4 -1.</_>
        <_>
          1 20 1 2 2.</_></rects>
      <tilted>0</tilted></_>
    <_>
      <rects>
        <_>
          2 0 22 2 -1.</_>
        <_>
          2 1 22 1 2.</_></rects>
      <tilted>0</tilted></_>
    <_>
      <rects>
        <_>
          2 1 12 14 -1.</_>
        <_>
          2 1 6 7 2.</_>
        <_>
          8 8 6 7 2.</_></rects>
      <tilted>0</tilted></_>
    <_>
      <rects>
        <_>
          2 1 18 2 -1.</_>
        <_>
          2 2 18 1 2.</_></rects>
      <tilted>0</tilted></_>
    <_>
      <rects>
        <_>
          2 8 12 2 -1.</_>
        <_>
          6 8 4 2 3.</_></rects>
      <tilted>0</tilted></_>
    <_>
      <rects>
        <_>
          3 1 10 4 -1.</_>
        <_>
          3 1 5 2 2.</_>
        <_>
          8 3 5 2 2.</_></rects>
      <tilted>0</tilted></_>
    <_>
      <rects>
        <_>
          3 5 21 3 -1.</_>
        <_>
          10 5 7 3 3.</_></rects>
      <tilted>0</tilted></_>
    <_>
      <rects>
        <_>
          3 18 12 2 -1.</_>
        <_>
          9 18 6 2 2.</_></rects>
      <tilted>0</tilted></_>
    <_>
      <rects>
        <_>
          4 0 9 10 -1.</_>
        <_>
          7 0 3 10 3.</_></rects>
      <tilted>0</tilted></_>
    <_>
      <rects>
        <_>
          4 3 6 6 -1.</_>
        <_>
          4 3 3 3 2.</_>
        <_>
          7 6 3 3 2.</_></rects>
      <tilted>0</tilted></_>
    <_>
      <rects>
        <_>
          4 11 3 10 -1.</_>
        <_>
          5 11 1 10 3.</_></rects>
      <tilted>0</tilted></_>
    <_>
      <rects>
        <_>
          4 23 9 1 -1.</_>
        <_>
          7 23 3 1 3.</_></rects>
      <tilted>0</tilted></_>
    <_>
      <rects>
        <_>
          5 0 5 24 -1.</_>
        <_>
          5 12 5 12 2.</_></rects>
      <tilted>0</tilted></_>
    <_>
      <rects>
        <_>
          5 0 6 12 -1.</_>
        <_>
          5 4 6 4 3.</_></rects>
      <tilted>0</tilted></_>
    <_>
      <rects>
        <_>
          5 3 3 15 -1.</_>
        <_>
          5 8 3 5 3.</_></rects>
      <tilted>0</tilted></_>
    <_>
      <rects>
        <_>
          5 5 9 14 -1.</_>
        <_>
          5 12 9 7 2.</_></rects>
      <tilted>0</tilted></_>
    <_>
      <rects>
        <_>
          5 8 3 10 -1.</_>
        <_>
          6 8 1 10 3.</_></rects>
      <tilted>0</tilted></_>
    <_>
      <rects>
        <_>
          5 9 2 10 -1.</_>
        <_>
          5 14 2 5 2.</_></rects>
      <tilted>0</tilted></_>
    <_>
      <rects>
        <_>
          6 3 5 8 -1.</_>
        <_>
          6 7 5 4 2.</_></rects>
      <tilted>0</tilted></_>
    <_>
      <rects>
        <_>
          6 5 18 6 -1.</_>
        <_>
          6 8 18 3 2.</_></rects>
      <tilted>0</tilted></_>
    <_>
      <rects>
        <_>
          6 10 18 9 -1.</_>
        <_>
          12 10 6 9 3.</_></rects>
      <tilted>0</tilted></_>
    <_>
      <rects>
        <_>
          6 22 8 2 -1.</_>
        <_>
          6 22 4 1 2.</_>
        <_>
          10 23 4 1 2.</_></rects>
      <tilted>0</tilted></_>
    <_>
      <rects>
        <_>
          6 23 9 1 -1.</_>
        <_>
          9 23 3 1 3.</_></rects>
      <tilted>0</tilted></_>
    <_>
      <rects>
        <_>
          7 1 5 6 -1.</_>
        <_>
          7 3 5 2 3.</_></rects>
      <tilted>0</tilted></_>
    <_>
      <rects>
        <_>
          7 1 13 10 -1.</_>
        <_>
          7 6 13 5 2.</_></rects>
      <tilted>0</tilted></_>
    <_>
      <rects>
        <_>
          7 10 1 6 -1.</_>
        <_>
          7 13 1 3 2.</_></rects>
      <tilted>0</tilted></_>
    <_>
      <rects>
        <_>
          7 14 2 3 -1.</_>
        <_>
          7 15 2 1 3.</_></rects>
      <tilted>0</tilted></_>
    <_>
      <rects>
        <_>
          8 2 3 6 -1.</_>
        <_>
          8 4 3 2 3.</_></rects>
      <tilted>0</tilted></_>
    <_>
      <rects>
        <_>
          8 8 14 12 -1.</_>
        <_>
          8 14 14 6 2.</_></rects>
      <tilted>0</tilted></_>
    <_>
      <rects>
        <_>
          8 11 6 10 -1.</_>
        <_>
          11 11 3 10 2.</_></rects>
      <tilted>0</tilted></_>
    <_>
      <rects>
        <_>
          9 1 2 15 -1.</_>
        <_>
          9 6 2 5 3.</_></rects>
      <tilted>0</tilted></_>
    <_>
      <rects>
        <_>
          9 1 3 15 -1.</_>
        <_>
          9 6 3 5 3.</_></rects>
      <tilted>0</tilted></_>
    <_>
      <rects>
        <_>
          9 1 4 15 -1.</_>
        <_>
          9 6 4 5 3.</_></rects>
      <tilted>0</tilted></_>
    <_>
      <rects>
        <_>
          9 2 3 6 -1.</_>
        <_>
          9 4 3 2 3.</_></rects>
      <tilted>0</tilted></_>
    <_>
      <rects>
        <_>
          9 11 2 2 -1.</_>
        <_>
          9 11 1 1 2.</_>
        <_>
          10 12 1 1 2.</_></rects>
      <tilted>0</tilted></_>
    <_>
      <rects>
        <_>
          10 0 3 15 -1.</_>
        <_>
          10 5 3 5 3.</_></rects>
      <tilted>0</tilted></_>
    <_>
      <rects>
        <_>
          10 3 3 5 -1.</_>
        <_>
          11 3 1 5 3.</_></rects>
      <tilted>0</tilted></_>
    <_>
      <rects>
        <_>
          10 4 3 2 -1.</_>
        <_>
          11 4 1 2 3.</_></rects>
      <tilted>0</tilted></_>
    <_>
      <rects>
        <_>
          10 4 14 5 -1.</_>
        <_>
          17 4 7 5 2.</_></rects>
      <tilted>0</tilted></_>
    <_>
      <rects>
        <_>
          10 5 2 9 -1.</_>
        <_>
          11 5 1 9 2.</_></rects>
      <tilted>0</tilted></_>
    <_>
      <rects>
        <_>
          10 20 3 1 -1.</_>
        <_>
          11 20 1 1 3.</_></rects>
      <tilted>0</tilted></_>
    <_>
      <rects>
        <_>
          11 3 3 3 -1.</_>
        <_>
          11 4 3 1 3.</_></rects>
      <tilted>0</tilted></_>
    <_>
      <rects>
        <_>
          11 18 2 4 -1.</_>
        <_>
          11 18 1 2 2.</_>
        <_>
          12 20 1 2 2.</_></rects>
      <tilted>0</tilted></_>
    <_>
      <rects>
        <_>
          11 19 8 1 -1.</_>
        <_>
          15 19 4 1 2.</_></rects>
      <tilted>0</tilted></_>
    <_>
      <rects>
        <_>
          11 21 6 3 -1.</_>
        <_>
          13 21 2 3 3.</_></rects>
      <tilted>0</tilted></_>
    <_>
      <rects>
        <_>
          12 2 2 6 -1.</_>
        <_>
          12 4 2 2 3.</_></rects>
      <tilted>0</tilted></_>
    <_>
      <rects>
        <_>
          12 16 12 3 -1.</_>
        <_>
          16 16 4 3 3.</_></rects>
      <tilted>0</tilted></_>
    <_>
      <rects>
        <_>
          13 1 2 21 -1.</_>
        <_>
          13 8 2 7 3.</_></rects>
      <tilted>0</tilted></_>
    <_>
      <rects>
        <_>
          13 11 4 10 -1.</_>
        <_>
          13 11 2 5 2.</_>
        <_>
          15 16 2 5 2.</_></rects>
      <tilted>0</tilted></_>
    <_>
      <rects>
        <_>
          13 12 3 2 -1.</_>
        <_>
          14 12 1 2 3.</_></rects>
      <tilted>0</tilted></_>
    <_>
      <rects>
        <_>
          14 0 10 2 -1.</_>
        <_>
          14 0 5 1 2.</_>
        <_>
          19 1 5 1 2.</_></rects>
      <tilted>0</tilted></_>
    <_>
      <rects>
        <_>
          14 1 1 21 -1.</_>
        <_>
          14 8 1 7 3.</_></rects>
      <tilted>0</tilted></_>
    <_>
      <rects>
        <_>
          14 1 4 9 -1.</_>
        <_>
          14 4 4 3 3.</_></rects>
      <tilted>0</tilted></_>
    <_>
      <rects>
        <_>
          14 3 10 2 -1.</_>
        <_>
          19 3 5 2 2.</_></rects>
      <tilted>0</tilted></_>
    <_>
      <rects>
        <_>
          14 4 1 12 -1.</_>
        <_>
          14 10 1 6 2.</_></rects>
      <tilted>0</tilted></_>
    <_>
      <rects>
        <_>
          14 14 1 9 -1.</_>
        <_>
          14 17 1 3 3.</_></rects>
      <tilted>0</tilted></_>
    <_>
      <rects>
        <_>
          15 0 2 15 -1.</_>
        <_>
          15 5 2 5 3.</_></rects>
      <tilted>0</tilted></_>
    <_>
      <rects>
        <_>
          15 3 6 6 -1.</_>
        <_>
          15 3 3 3 2.</_>
        <_>
          18 6 3 3 2.</_></rects>
      <tilted>0</tilted></_>
    <_>
      <rects>
        <_>
          15 11 9 2 -1.</_>
        <_>
          18 11 3 2 3.</_></rects>
      <tilted>0</tilted></_>
    <_>
      <rects>
        <_>
          15 12 4 2 -1.</_>
        <_>
          15 12 2 1 2.</_>
        <_>
          17 13 2 1 2.</_></rects>
      <tilted>0</tilted></_>
    <_>
      <rects>
        <_>
          15 13 2 9 -1.</_>
        <_>
          15 16 2 3 3.</_></rects>
      <tilted>0</tilted></_>
    <_>
      <rects>
        <_>
          15 16 8 4 -1.</_>
        <_>
          19 16 4 4 2.</_></rects>
      <tilted>0</tilted></_>
    <_>
      <rects>
        <_>
          16 17 2 3 -1.</_>
        <_>
          16 18 2 1 3.</_></rects>
      <tilted>0</tilted></_>
    <_>
      <rects>
        <_>
          16 17 6 2 -1.</_>
        <_>
          19 17 3 2 2.</_></rects>
      <tilted>0</tilted></_>
    <_>
      <rects>
        <_>
          16 20 8 4 -1.</_>
        <_>
          16 22 8 2 2.</_></rects>
      <tilted>0</tilted></_>
    <_>
      <rects>
        <_>
          17 16 6 6 -1.</_>
        <_>
          17 16 3 3 2.</_>
        <_>
          20 19 3 3 2.</_></rects>
      <tilted>0</tilted></_>
    <_>
      <rects>
        <_>
          18 0 1 4 -1.</_>
        <_>
          18 2 1 2 2.</_></rects>
      <tilted>0</tilted></_>
    <_>
      <rects>
        <_>
          18 8 3 13 -1.</_>
        <_>
          19 8 1 13 3.</_></rects>
      <tilted>0</tilted></_>
    <_>
      <rects>
        <_>
          19 8 2 2 -1.</_>
        <_>
          19 8 1 1 2.</_>
        <_>
          20 9 1 1 2.</_></rects>
      <tilted>0</tilted></_>
    <_>
      <rects>
        <_>
          20 1 4 8 -1.</_>
        <_>
          20 5 4 4 2.</_></rects>
      <tilted>0</tilted></_>
    <_>
      <rects>
        <_>
          20 5 4 12 -1.</_>
        <_>
          22 5 2 12 2.</_></rects>
      <tilted>0</tilted></_>
    <_>
      <rects>
        <_>
          20 7 4 2 -1.</_>
        <_>
          20 8 4 1 2.</_></rects>
      <tilted>0</tilted></_>
    <_>
      <rects>
        <_>
          20 9 3 8 -1.</_>
        <_>
          21 9 1 8 3.</_></rects>
      <tilted>0</tilted></_>
    <_>
      <rects>
        <_>
          20 10 4 5 -1.</_>
        <_>
          22 10 2 5 2.</_></rects>
      <tilted>0</tilted></_>
    <_>
      <rects>
        <_>
          20 12 3 2 -1.</_>
        <_>
          21 12 1 2 3.</_></rects>
      <tilted>0</tilted></_>
    <_>
      <rects>
        <_>
          21 1 2 6 -1.</_>
        <_>
          21 1 1 3 2.</_>
        <_>
          22 4 1 3 2.</_></rects>
      <tilted>0</tilted></_>
    <_>
      <rects>
        <_>
          21 1 3 3 -1.</_>
        <_>
          21 2 3 1 3.</_></rects>
      <tilted>0</tilted></_>
    <_>
      <rects>
        <_>
          21 2 3 3 -1.</_>
        <_>
          21 3 3 1 3.</_></rects>
      <tilted>0</tilted></_>
    <_>
      <rects>
        <_>
          21 8 2 2 -1.</_>
        <_>
          21 8 1 1 2.</_>
        <_>
          22 9 1 1 2.</_></rects>
      <tilted>0</tilted></_>
    <_>
      <rects>
        <_>
          21 18 3 1 -1.</_>
        <_>
          22 18 1 1 3.</_></rects>
      <tilted>0</tilted></_>
    <_>
      <rects>
        <_>
          22 0 2 6 -1.</_>
        <_>
          22 0 1 3 2.</_>
        <_>
          23 3 1 3 2.</_></rects>
      <tilted>0</tilted></_>
    <_>
      <rects>
        <_>
          22 13 2 3 -1.</_>
        <_>
          22 14 2 1 3.</_></rects>
      <tilted>0</tilted></_>
    <_>
      <rects>
        <_>
          22 17 1 6 -1.</_>
        <_>
          22 19 1 2 3.</_></rects>
      <tilted>0</tilted></_>
    <_>
      <rects>
        <_>
          22 17 2 4 -1.</_>
        <_>
          23 17 1 4 2.</_></rects>
      <tilted>0</tilted></_></features></cascade>
</opencv_storage>
