<?xml version="1.0"?>
<opencv_storage>
<stage4>
  <maxWeakCount>7</maxWeakCount>
  <stageThreshold>-1.5969727039337158e+00</stageThreshold>
  <weakClassifiers>
    <_>
      <internalNodes>
        0 -1 91381 -4.0615558624267578e-02</internalNodes>
      <leafValues>
        5.5555558204650879e-01 -8.8301885128021240e-01</leafValues></_>
    <_>
      <internalNodes>
        0 -1 99422 -6.1370834708213806e-02</internalNodes>
      <leafValues>
        5.2926641702651978e-01 -5.4975402355194092e-01</leafValues></_>
    <_>
      <internalNodes>
        0 -1 135297 3.4554661251604557e-03</internalNodes>
      <leafValues>
        -4.2726045846939087e-01 2.7303054928779602e-01</leafValues></_>
    <_>
      <internalNodes>
        0 -1 120907 -8.4990591858513653e-05</internalNodes>
      <leafValues>
        2.8348883986473083e-01 -4.6679168939590454e-01</leafValues></_>
    <_>
      <internalNodes>
        0 -1 159866 4.7376661677844822e-04</internalNodes>
      <leafValues>
        -3.9432591199874878e-01 3.2237541675567627e-01</leafValues></_>
    <_>
      <internalNodes>
        0 -1 25011 -1.0650414042174816e-03</internalNodes>
      <leafValues>
        -8.8509809970855713e-01 1.8210422992706299e-01</leafValues></_>
    <_>
      <internalNodes>
        0 -1 127374 2.7121924795210361e-03</internalNodes>
      <leafValues>
        -4.7491836547851563e-01 2.7390596270561218e-01</leafValues></_></weakClassifiers></stage4>
</opencv_storage>
