<?xml version="1.0"?>
<opencv_storage>
<stage10>
  <maxWeakCount>8</maxWeakCount>
  <stageThreshold>-1.7912518978118896e+00</stageThreshold>
  <weakClassifiers>
    <_>
      <internalNodes>
        0 -1 143584 -6.7753568291664124e-02</internalNodes>
      <leafValues>
        6.6666668653488159e-01 -8.7958610057830811e-01</leafValues></_>
    <_>
      <internalNodes>
        0 -1 57235 1.9520642235875130e-03</internalNodes>
      <leafValues>
        -6.3967090845108032e-01 -9.8803810775279999e-02</leafValues></_>
    <_>
      <internalNodes>
        0 -1 66164 1.4452466275542974e-03</internalNodes>
      <leafValues>
        -3.7946301698684692e-01 2.6119989156723022e-01</leafValues></_>
    <_>
      <internalNodes>
        0 -1 134443 6.7721316590905190e-03</internalNodes>
      <leafValues>
        -2.8857234120368958e-01 4.3282619118690491e-01</leafValues></_>
    <_>
      <internalNodes>
        0 -1 135452 3.5555418580770493e-03</internalNodes>
      <leafValues>
        -3.8338389992713928e-01 2.9936370253562927e-01</leafValues></_>
    <_>
      <internalNodes>
        0 -1 1 6.5852189436554909e-04</internalNodes>
      <leafValues>
        1.6253358125686646e-01 -8.1864714622497559e-01</leafValues></_>
    <_>
      <internalNodes>
        0 -1 88265 -6.1456681578420103e-05</internalNodes>
      <leafValues>
        -4.9684309959411621e-01 1.7703622579574585e-01</leafValues></_>
    <_>
      <internalNodes>
        0 -1 162033 -1.1047548614442348e-03</internalNodes>
      <leafValues>
        -6.0004490613937378e-01 1.9198609888553619e-01</leafValues></_></weakClassifiers></stage10>
</opencv_storage>
